{"layerSizes":[20,512,256,128,64,32,16,1],"layers":[{"inSize":20,"outSize":512,"isOutput":false,"weights":[[-0.04421641864812915,0.08878488144261339,0.7584189453400688,0.09145236877587834,0.028898840768362577,-0.31344060031564686,-0.0181658448106391,0.41308864904409875,0.05271342739781327,0.017982188598980434,0.22338593711377058,-0.1720939480645613,-0.21629327803822657,-0.1139794577635463,-0.5011591177777837,-0.22827292989493927,-0.07851256708908468,-0.20013401931480188,0.3921380210474931,-0.5016953749702925],[0.02693245853408199,0.2050789601013198,0.4843254742120222,0.1335545649146399,-0.4312274162035445,-0.2325569290938124,-0.1873551166779139,-0.08487116773312316,0.02058038500515438,0.3265053018886417,-0.3077993285720305,-0.03719284824381176,-0.14708764835073027,-0.07073545018988225,-0.08320696344783134,0.26650598711695944,0.2967693183689772,0.3942280290424868,0.6563127067114198,0.1454681461014821],[0.19060502031552587,-0.3210120443517772,-0.27607816972113397,-0.1635717851303808,0.5490005201865704,-0.45836864399830185,0.3987614242038875,-0.21399894672218006,0.12703181262475408,0.4199762985115856,-0.67036429080389,-0.3539360398651441,-0.28597646052077724,0.32472987344191034,0.22442684797211776,-0.14774474695396606,-0.3515756793148462,-0.7154001800301704,-0.06640099223790911,0.009019740273608695],[-0.33824627996800377,-0.13206927342358946,-0.3114230952120107,0.0517946235023567,0.05374663329244981,-0.26462695940055597,0.40397200312919723,0.07981422575815907,0.354071552526298,0.09859629541754932,0.47299737150885995,0.08628962016432505,0.2859452599589853,-0.03436495029637675,0.016574420615075944,0.5224681255956795,-0.4462968614804779,-0.5069828665753485,-0.5429089518455147,-0.11498620321080087],[0.011196267952366895,0.11384822912324424,0.07841628549882623,0.10955903114453888,-0.03869405531067084,0.17818313065516567,-0.3013676255325374,-0.7918851227711471,0.1540469957999256,0.7047822812365943,0.329742489941706,0.033003658798171215,0.028733629893730656,-0.4247235007530693,-0.6966093717926749,-0.5221982424323673,-0.6043017229876213,0.3621915942094356,0.7610203995883842,0.14474236558545905],[0.1940072222316654,-0.787278568525683,0.5317408233900742,0.1964727453066923,0.3978462849982117,-0.10342853946813114,0.49231521898203556,0.017770600831818452,-0.04974413143588489,0.19897135889448883,0.3165858464094043,-0.15954366099094758,0.030059093720220434,0.11771811262560589,0.6107651328375828,0.25738519786842345,-0.2926955672594562,-0.39752508418385224,-1.2163476763361967,-0.0496393068561429],[0.07368602493357015,-0.08465260916737258,0.6097798014536453,0.3100762311244142,0.3690857664660982,-0.23160508810616354,-0.2548162678969916,0.19109235581361347,0.5053402100609166,0.28471169969807564,-0.06463943207719289,-0.23823466550778175,-0.16041757786410427,-0.23286918225084094,-0.41909730393685957,0.010637644571518234,-0.1366233326458045,0.04853885254122522,-0.2228747770061881,-0.15644344498105717],[0.028354705915366086,-0.3832314270283194,-0.5382040811520427,-0.4081128638872818,0.055029068888565874,0.04774201015858769,0.023449742359266265,-0.14015145685307037,-0.18500907389477053,0.04502670236260279,0.2209773494031281,-0.17993173327554268,0.27292114228652464,0.36564731961259855,-0.10571078989481697,0.5630246651131042,0.04484270805231093,0.2117274261360684,0.027684086386202778,-0.19097893895936946],[0.07931612494920692,-0.4238022512962724,-0.025261358584511943,0.20534382226771047,-0.06887001186419714,0.08867211827038807,-0.21565941011954579,0.1876925689073766,0.29950195854634065,-0.3445959417045279,-0.12876027136632376,0.10438087187295025,-0.018185983422736703,0.30755022217450373,-0.5256786303802317,0.27999048770455814,-0.0942458339873255,-0.17223882329924645,-0.19538692939868296,0.15221582376305312],[-0.2846700376331955,0.01414806550841572,0.21067941389029743,0.1309369234919065,-0.0686473087313253,0.21416962538183382,-0.2693212602263697,-0.6079095330232906,-0.38870016781325206,-0.1693606480748134,0.263145193575725,-0.19881356831483976,0.02437154617927403,0.2701252694564298,0.06719000444084819,0.210842513594523,-0.34710772882497587,0.3144320805003418,1.0713467733444673,-0.03305386876341336],[0.07964555366355906,0.08527543715938316,-0.02878940499837793,0.045915193646611924,-0.27849605540470257,0.23187987317173345,-0.25792531658479195,0.23719570488668265,-0.13395352639027985,-0.680066900118057,0.2778652620364571,0.22574211359755325,-0.1969009303581603,-0.15837782820483107,-0.6039333593802014,-0.015866330143594717,0.38189307457756355,-0.09674407438111662,-0.42208852288360255,-0.12954203341896653],[-0.1418825527262649,0.24913392330893167,0.40402669887839254,-0.13385311180747408,0.1984404745735593,-0.08285529918709687,-0.17394871308395024,-0.12235379461217116,0.20491643672738372,0.19159162007589592,0.028229655659208337,-0.21409654104836412,-0.08951951198745987,-0.13566648723908664,0.5553565410836722,-0.22664788989408313,-0.18840850537134962,-0.6238701639504727,0.3935675224052887,-0.5195233073706842],[-0.11185016719066765,-0.6081374733596256,0.2154115603310024,0.16020949683454433,0.2593774426196464,0.20207424784718758,0.04226694203747173,0.051330640500518436,0.4832082098283605,-0.5095983374703611,-0.23665037434692246,-0.15131866071531297,0.09811735884128439,0.055783896137148764,-0.3999405965155701,0.20444385591987,0.3245344214942496,0.1034441098802936,0.8106002735556396,0.42230761041792547],[0.04237212849062066,-0.3675580312579854,-0.3334872356425414,0.774639862148085,-0.5455387340761194,0.12679937586541715,0.013270334188078672,-0.07909008456030651,0.5447331845357037,0.11152032023115092,-0.34477997429247725,0.1384522278733006,0.3283411360442997,-0.05291685102660892,-0.251013448150442,-0.2883932348199448,-0.03644268141623559,0.5060081570817532,-0.2777196037689727,-0.38988667510285857],[0.0934481565026023,0.33349272898817434,-0.14800734217390343,-0.37668325643385697,-0.508210591748077,-0.14086418030990766,0.009687553797387602,-0.10829659265834793,-0.1661579725839582,-0.17083285119284333,0.363605665438569,-0.45087300183891776,-0.11654725209723879,-0.009587049244837326,0.15569219691406397,0.24639647780334126,0.21664752421141584,0.26797675060295284,0.3566739759799104,-0.0400150539110421],[-0.02303656859113593,0.16206301663882328,-0.18281310662351277,-0.8320268788085181,-0.048618027863985405,0.42157426521072766,0.16607965782464354,-0.3089963910683583,0.2605771032380288,0.018802046521322474,-0.27255210454695533,-0.14746367388941245,-0.36812898938455857,-0.1733812336491983,-0.008409318065305104,0.2615407575982894,0.3091091406739811,-0.10859097413465199,0.11208646225603021,0.37529979535655056],[-0.22560250832553602,-0.21221679885020028,-0.011394611635094408,0.07346122705300556,-0.36113727039631904,-0.18667097773353192,-0.18465483356723222,-0.12278312185494382,0.04343198893646566,-0.1776127998713577,-0.21638588291601818,0.20018237377526488,-0.12015089093987025,-0.3971921703173161,-0.40760715430508077,-0.6268999019404273,0.11110223942294371,0.41888125739076504,1.0550704218283233,0.17068195212115528],[0.0927625959385002,-0.09102737123515574,-0.20641634995410668,0.5692851738673445,0.06621045165972701,0.12564130046720876,-0.3863630501459289,-0.28307346524007176,0.0048952600496065595,0.2831241470566056,-0.11898819992923922,0.22495830572275813,-0.06957752164930246,-0.5148330190689604,-0.23113582527644708,0.4223300081608838,0.07876560208575295,-0.6291803103745386,0.016153270482981947,0.07882530292240965],[0.03416847912927507,-0.18504724203978384,0.5331208740958939,-0.25636520375265315,-0.17530771853015975,0.24564544422080206,0.35321259711779557,-0.004744753290665146,-0.5977338721511102,-0.18765372968761396,0.09574520764632333,0.3490354971588648,-0.3719537244516507,0.29575399515995116,-0.031784833099345974,0.0778792396891686,0.3826351942525079,-0.21580352827169236,0.2557596565045822,0.13812705197451602],[0.004509090503479883,-0.42467568753363316,-0.7412753428927632,0.1657729024108437,-0.4252295732724543,0.2231963884465542,-0.1845350077674453,0.3302675527535948,-0.06956811584292356,0.7154858764047177,0.22171440175920648,0.17510375936914624,-0.5675930108002574,0.36073118694480955,0.08616138967288425,-0.10283587716976893,0.41578672251648663,0.05698289121865348,-0.4093865706270349,-0.018135555530800464],[0.4922825337559374,0.4156714336509607,-0.15836573337834414,0.02352987854376683,0.09426536400416556,-0.03510482011146302,-0.11228874420985827,-0.05747889123470703,-0.15337468658698333,0.07727829995871094,0.05128223572596503,0.19250079162855216,0.21835870547646452,0.3122370299100208,0.28723512696021775,-0.09651021872260906,0.4130676374502112,-0.2221824535148372,-0.3878054166557898,0.451758835331327],[0.23727031731599887,0.018748240735979152,-0.29458059025546557,-0.20597028943774412,-0.6660367931509122,0.15212806892207167,-0.06021586431005256,-0.32037087954119864,-0.7049760181666201,-0.06438086534346837,-0.26213660275375944,0.2596315107919819,0.43553699170052773,0.06419871411872187,-0.25774006269508154,-0.2601671442383181,0.4491468463187793,-0.006020736321166019,-0.22429499100163203,0.0766635690194054],[0.08253713370332395,-0.06896252142283779,0.34312736345200245,-0.45255387824218607,0.3912673870019048,0.15842088167750615,0.20049850590128215,0.3137285326676949,0.25168386400261744,-0.2884025991897769,0.30527277810512815,0.44690008746792914,-0.2238807668231606,0.24498677860966606,0.16854812626221718,-0.13006086216248366,-0.2009740135155784,-0.09783582674047847,-0.7238329448570545,-0.41143365510309066],[0.11292359571702693,0.428817192044021,0.23230058542208262,0.052204260481712804,-0.1765663965107639,-0.5381705722178955,-0.04130049186570785,0.2444711726360008,-0.28578615156597154,-0.3176565480157401,0.47592134164308375,-0.42369047885197486,0.07136208805111627,0.13290473285867693,-0.36360457677947344,0.26147921987330297,-0.22523060316614127,0.15343966340495221,0.37809312156411234,-0.05000822017019418],[0.1552587732098053,-0.4182358851647019,-0.6326199432693066,0.11699290750567913,0.30115711070894396,-0.0957930539458069,0.008424673886421513,-0.09788288297478138,-0.30536189163222094,0.31506008076654585,-0.06635864228944108,0.023656224275279653,-0.0504752413300504,-0.5759984734707393,-0.1266730622869871,-0.08767824728419851,0.4910047179018922,-0.05891370329379973,0.6908940602702955,-0.09642973204670566],[0.4345253923033773,-0.07790009198661194,-0.05909562401744473,-0.9439427283806187,-0.5465992143371715,0.470692039130293,-0.07084727883831206,0.2994594651048785,-0.6673236265225141,-0.6611554646046138,-0.19912551367987602,0.25815201605522514,-0.3574825979906601,0.2055735587709728,-0.2852009674034353,-0.4202875576051719,-0.06474483742813793,-0.6976018466807254,-0.07220261129969545,0.25375726683640853],[0.08585851920177627,-0.47500012453276197,0.47888403931769413,0.24271911922308428,-0.3267577549266228,-0.5026695595085413,0.042916737727562805,-0.023223002230342557,-0.673179748823627,0.18778439575221084,0.0683256183848845,0.22161362036779975,-0.09572237306632962,-0.3449054847645986,0.1869930136719488,0.3694098490615364,-0.007004899905553697,-0.033462699120679965,0.30505419002737083,0.0779863359456683],[-0.21094307140376187,0.22306121542039214,-0.25664571906449174,-0.30629770996009,0.288901775661847,0.1008035159150415,-0.1986477883118591,-0.08925438897750278,0.01716082645936428,-0.15416086333514084,0.05271410919465903,-0.5402785223664823,0.44368822806046543,0.6114582365919379,0.05436171392300627,-0.004766355458346434,-0.28884822231961316,0.5384939901576694,0.05730383806711842,0.026661884470594904],[0.3257659504879554,0.2520874641604515,-0.25084784764546103,-0.08804209872232144,0.5409340334814684,-0.0009228527465377722,-0.3327621165239925,-0.19284292690312899,-0.2074305649578969,0.06533065810678917,-0.049086447317438844,0.07935411621176375,-0.652615629401855,0.04059011648289167,-0.5569956920756312,0.24292333413064626,0.3383003539660166,-0.28553997947423054,0.0750594939745191,0.35690777910425464],[0.3129123835956528,0.3165930017884033,-0.2732876301441904,0.07434048192923538,0.33216233891146074,-0.0824782070160848,0.4227867284399638,-0.2324518062041247,-0.43417919894174584,0.3410637513528786,-0.3530885161764278,0.28612101268794893,0.3377841644611693,-0.38934567293709843,0.0981474181175948,-0.1991001984941473,-0.4916729604530712,0.016250573961030308,-0.565527631293925,0.24825268434851594],[0.07886506178501568,0.012189433388261143,0.20015038899284956,0.10990991302886237,0.0020194160518881444,-0.24407062385249362,-0.24800911406501744,-0.23032707440287406,0.4643214681580114,0.07737551813816093,0.023453085148438524,-0.21179589294875334,0.3416679277221164,-0.2603440925876269,0.16413842990070848,0.2840258188892943,0.16102848008109877,-0.08232158567398322,0.20112675275599345,0.23310302418311982],[-0.10854113435068104,-0.6376220986566721,0.25630466759254,0.7464023956182538,0.11490910715717154,-0.24176264549473486,0.24531377860524115,-0.10106625876165368,-0.4364173011388754,0.600373575053707,-0.050687335100973896,0.35095192059279456,-0.19077816670670372,-0.33958602993203657,-0.10362743975152211,-0.1459547683647891,-0.03157541716101441,0.14611077814633527,0.23226273906147654,0.417619460229788],[0.22658195143475413,-0.10684648004660588,-0.27250177854371826,-0.24335676542089293,0.3380294409439733,-0.04501116057226218,0.5705224536912411,-0.2998499179010218,0.24739551925394831,0.04075501619226844,-0.11557916379728418,0.12402514355756412,0.37973018390762914,-0.4532807831205081,0.1502274507200965,-0.10873482029385564,-0.1609143142385159,0.11384422886550416,0.3160436126758317,0.23441298867389715],[-0.17480541062759467,-0.35829090461406016,-0.17354804805582605,-0.14298779049031593,-0.3360224915418204,0.2892210029520387,-0.23196899389851025,-0.05996069878816607,0.030061096600597356,0.4423504428863175,0.11280925144278692,-0.061484217287115894,-0.10672491363743923,0.47166860812548733,-0.7104549704002281,0.38673592264391216,0.2885576747857161,-0.19758717111230206,-0.3455883599269253,0.4509043898084797],[-0.5555208582099422,-0.21303510752363533,-0.3156140825351388,0.16407951073286664,0.624432811643449,-0.029132719817402883,-0.12329408670410288,0.5263618728300976,0.021442280141649023,0.09250808098137694,-0.32003110916846317,0.5992288473068793,0.13644239325295357,-0.3360531663062414,-0.06571815848305064,0.3713895949464591,0.16604825577404714,-0.4085458396387102,-0.15923311544545696,-0.017996589433037637],[-0.22401391280710062,-0.04132445361243072,-0.5216922867857676,0.34566720096826115,-0.007658899729973287,0.05548769157135223,-0.3247540483910936,-0.07191446143888773,0.10256797826060145,0.2920625021292345,0.4331698708715208,0.15711031160881997,0.8171758680183403,-0.36571733177519333,0.4313056728907597,-0.35477888885907977,0.0328679677926103,0.3670057260969039,0.4692251655494264,0.1949347427684533],[0.44550859051180824,-0.43945166310671546,-0.448109525468258,0.3148607823920963,0.1598827070995085,-0.48399629623432255,-0.20780112903070583,0.16224017047464734,-0.11483428458526344,0.12719743427092653,-0.49344805130940117,0.11691727441030501,-0.2847578782493774,-0.14418849549338075,0.009008653963364794,0.4300126037695754,0.4505600074699704,-0.0646654869805571,-0.2587187097822791,0.22546221443929818],[0.43974241426144395,-0.053646082237464254,0.03295837906655622,-0.5138961976831644,0.22100431329167086,0.1566028878913098,-0.5633614353643366,0.05848682955024514,0.1196486452125522,0.060845696926283846,-0.08110449930297572,0.14599068060611017,0.06124675344424171,-0.11416797255893914,0.622620072080549,-0.3798460841950518,0.0030519773329176327,-0.3621349849692278,0.017585081222910318,0.20306600232782201],[0.1633187071387332,0.2439240203358595,0.13594499683364242,0.09343745058081432,0.24741913305921173,-0.6970645165612921,-0.32300749877581425,0.2979008380757364,-0.44532053141083056,0.04109731760419385,0.3891689094100473,0.2090238238590164,0.20964510455045313,-0.018843198748011474,-0.5112783859196303,0.002812512066404059,0.1947933176389067,-0.11269889630479296,-0.14451186393741475,-0.15411106562629012],[-0.19764512842139825,-0.25779012182746186,-0.39559636412803917,0.06743756145947095,-0.17848971250809492,-0.05688766266143724,-0.47446929087305856,-0.2513934602075416,-0.05437119705569581,-0.4443086673041753,0.1895940391978915,-0.028311400366212987,-0.030967621938900968,0.17457446196119458,-0.09413822057852154,-0.274142930317003,-0.31199068676637004,-0.05730199996603703,-0.06561782495196591,-0.06742896635788927],[-0.03624881390961554,0.40754818158651535,0.502360374650231,-0.04526078885134796,0.043791327322924206,-0.006508428294914642,-0.3178167714446173,-0.2055432822916809,-0.1474604586981371,-0.25862210308557104,-0.0507753825034931,0.4199615206563602,0.15490800824067508,-0.1678345731195642,0.20604937759092096,-0.0711841087271645,0.24206608128382795,-0.34664625066339133,-0.273972275041704,0.17005603730800137],[0.03192703775359256,0.02403697389131156,-0.15539575386216536,0.2265165512875499,-0.5854949399258553,-0.3530661781773514,-0.24760416445963404,-0.561349612503891,-0.44905739195213706,0.29124796938420944,-0.4554021510557966,-0.1877870638710681,0.35193329324861233,0.48919151417305906,0.2819094830149084,0.09786267894092368,-0.6594407326799061,-0.18668032524765812,-0.7408356662381906,-0.6691806082317115],[0.40673718546326004,0.13767269985110084,0.17873184676174075,0.03350712181171018,-0.24350691225214313,0.17482588797070153,0.2636317138892708,0.11224470698787149,-0.003098668077055926,0.32808120097434607,-0.379456970698143,-0.5637730699015662,0.4251399560399442,0.39849828154478284,0.5688005259660719,-0.08152752608000258,-0.08407247402476041,0.4198233892058859,-0.7160108032599029,-0.17783565390662778],[0.1327872544218439,0.17350968669063077,0.15862750249046856,0.14921615157029997,0.1566464097738728,-0.24507814488370147,-0.17037947758684163,-0.3146695852842896,0.24978905298816476,-0.1851008453814162,0.07755531539138642,-0.2914564105919932,0.08650700909806314,0.8761863048558635,-0.17861548734360833,-0.1167667643137315,-0.49219337136335073,0.22252703536317442,0.0402804030138978,0.3141652065670757],[-0.3963442783178287,-0.5504362698878174,0.5641539206069649,0.14729825425367948,0.3619108602393937,-0.13693148007322073,0.01708188934682376,0.1540922650308164,0.2133716072531033,-0.2950250744192928,0.027799934363191205,0.5340282366650421,0.0373778607642593,0.0019547378299364735,-0.7235441072880565,-0.11491684994434946,-0.7764542078411162,-0.14283242999310647,0.33208523772951615,0.37208536721193486],[0.6222098270248004,0.3108894297669587,0.24685040715995746,-0.15078569695459013,0.39232480600976644,-0.23807057049910976,-0.03565178792075185,0.4058055920929587,-0.024443355048748935,0.23472225786282735,0.26775117554976835,0.3676493544429908,-0.41090182799380026,0.13681952250965437,0.5072697587981331,-0.48915617060492045,-0.14530628151652633,-0.5917820789622754,-0.7134903201435756,0.4077347233352357],[-0.37058828172284813,0.23958017573617216,0.031717062865008555,-0.6771620154103792,-0.21244451951432566,-0.45935164352177577,0.1915702609025047,0.12577738475056904,-0.31322423131638033,0.002472412012366932,-0.4962324728212586,-0.24612265149335485,0.10204763387963048,0.40019280737191976,-0.2776744157210591,0.3996722498241469,0.7269646584605004,0.3070653531160841,0.9582972941342042,-0.3683875580174624],[-0.21702052376686595,0.23639389754030007,-0.02495039863907052,0.7583385766894811,0.06759862205610909,-0.660823004218295,-0.3692961506181832,0.058967976232724144,0.28587266164994857,0.11056807467423169,-0.01192744131272521,0.011550282774276366,-0.0841452010683193,0.33559345718585853,0.20426389612452936,-0.39718800715282004,0.5384762377605317,0.14058451221096385,-0.005432671810319055,-0.20884203830472073],[-0.18549584229590002,-0.31353658646014365,0.2913501381321991,-0.3094877766101406,-0.2585200417746463,-0.354389037542952,0.337809612067027,-0.3977860639115314,0.25734853868177165,0.5396944231765095,-0.2225731185770856,-0.2190232825884008,0.18652224937555084,0.7179741340727896,0.01142063131070987,-0.5159392245119254,0.24866985354260226,-0.3015178936910175,-0.08554135974786156,0.20474166660413978],[-0.1689858637335864,-0.21142220577216442,-0.42371608437196095,0.6874660895324063,-0.1407732183370626,0.4351839068096584,0.1966653020207184,-0.1584032927111669,-0.4826592070518405,-0.5009760303910628,0.5091364894863701,-0.8934807599622581,-0.38446571268106483,-0.24850112849672332,-0.4768100123559307,0.2282792448267493,-0.1802672571878425,0.4409459709409614,-0.25512448724198933,0.1338651442098178],[-0.05220500552690608,-0.469253768689357,0.09356121411411548,0.4160640309442629,0.08469377292329694,0.35797012214907664,-0.24766191024352074,0.26325988972760717,0.07277995399239728,-0.2786004241240896,0.2603370996159879,-0.5784543721814567,-0.12858691110914847,0.26322432763042597,-0.32073237048735015,0.22637940010074326,0.2501681346586571,-0.33159253165878677,-0.4104914119356766,0.35029390734301896],[-0.375194642023545,-0.17026817403351013,-0.08896339600749627,1.055282089741065,0.07649713236556888,-0.21112883494962845,0.24718689830671806,0.0895501783164297,0.36122620481095125,-0.11359990564833769,-0.07236875059779847,-0.21645941550957182,-0.17923413908576966,0.0270093837380506,0.49727921144500237,0.15464758245941948,-0.14933628333951837,-0.23972936236953007,0.2922942395649886,-0.21314414021922104],[0.3695659482660348,0.04844517188340412,0.4473850755393861,0.29235483632420517,0.10493248484344292,0.433127314671751,-0.2244028976890397,0.36265873246489183,-0.45234471587601166,-0.28023246849823047,-0.29639621064878524,-0.20248056095308864,-0.21084191869621652,-0.4997716101783314,0.22258426647020013,-0.053603472184404526,0.5131229459332755,-0.03202001383839488,0.5555110210360981,0.3744830581471907],[0.42602983955234586,-0.6159400558753511,0.488104107126523,-0.13660546837015303,-0.25321689653565627,0.17206122610765887,0.1287419489467768,0.4306687794730931,-0.06172532530913072,0.19850314160423066,0.2743938785258205,0.1724023903253718,0.42226221697987815,0.6013886637276509,-0.16662654903033755,-0.05151459979998282,0.14952302262365372,-0.6187785680797159,-0.5976307136046369,0.3257765958084624],[-0.03814200807425536,0.2972167373379542,-0.45764613937035414,-0.33505602245053673,-0.1503393143031018,-0.10685380147198376,0.5166049460169237,0.14910459921136285,-0.5637472993733196,-0.2394774298681296,-0.07132774285073702,0.3282081309959865,0.03629113304255853,-0.3821985962069973,0.38759283541301237,-0.08766990475769638,0.13004675093426882,-0.15248384943954693,0.5142991080864794,0.026896645834446266],[0.6566693036035312,-0.44064547424128314,-0.33096032917669893,-0.15171779431367424,0.042781081068303514,-0.45732761782362574,0.2724258458722742,-0.30395494666293615,0.15300284874977507,0.15635118166867765,0.21188769022209225,-0.08928801851046556,0.4538567881430115,-0.07125846870216816,0.10909293789649549,0.00972815011787024,0.10073786120362792,-0.02273702505045516,0.3819600999241069,-0.37486231580147755],[0.13421115366654024,-0.16311998669471997,0.10983800078735481,0.03979687667044239,0.4804493764839879,-0.048441676130451396,-0.12335837095809299,-0.10178703351858133,0.3673150825527163,0.12209039352108968,-0.006787298377074464,-0.16311277592846307,0.0026936224200866305,0.14749982124631,-0.33645995751805413,-0.23984212749805886,0.2880716057470783,0.6532376324805156,-0.26243914951435665,0.3691644253554396],[-0.4592910954670088,-0.042319253621247145,-0.18219654420439044,-0.4097262965422387,-0.4581292578501968,0.5951930655106747,-0.3027624185797765,0.5255413464670111,0.41049121671979744,-0.16867248586859887,0.3849217107640122,0.1681999708306118,-0.23713743152740446,0.036849569525282115,-0.1636706528407045,0.20607591649526139,-0.25609948319298825,0.06973011187844115,-0.02576344855027834,0.1512177006115892],[-0.3948998035158311,0.17299596277898827,0.09262393687808962,-0.17172364610769542,0.23521477856062736,0.28293893149315,-0.07405342886937305,0.017930105970955026,0.45582890083652683,-0.2897755719012222,0.24716700092056731,-0.17882789379263095,-0.06081317458008456,-0.24151477398870305,0.5171739543913882,0.07380477010490187,-0.21726699851442513,0.16909701312522318,-0.26976532755085464,0.35647621442261995],[0.05566134916468076,0.12375092823115559,0.6613610530369538,0.03476271495786824,0.017091861197000815,-0.3750116130273578,0.20652130714788314,0.5267391751687803,-0.23631267404420903,0.3725813257794029,0.2998393636322845,-0.08934386842609109,0.27539175738973215,-0.380389278420848,0.3649121669367426,0.461512137947147,-0.4083716319539148,0.3295369862089391,-0.37440777164381317,-0.07157395461746024],[-0.7480833998855158,-0.03059134880616862,0.26051417611877226,0.642772865869733,0.022187792857439555,0.36074272229865195,0.03545410661143193,-0.19811155629317811,0.061160430431120606,0.028084751324936968,-0.291623512799523,-0.46417522917315995,-0.13960114485531927,0.24602740286247307,0.09325524589714007,-0.34642711568936,0.23357688655412373,-0.14437325434821963,0.2969299935956814,0.07934938159954874],[0.24455431410473444,0.4295281077525679,-0.33798577483991804,0.642687109142584,0.5179054358262946,0.29063645915278885,-0.3799328082341663,0.1305674872805948,-0.04722050844493269,0.2532248103880318,-0.19200801283074032,-0.3682619118802037,-0.42288386951671625,0.7390788888980576,-0.26305804692435364,-0.23640531605193285,-0.30820837574886756,0.017837051144445025,-0.5172177778115288,-0.13271547187927696],[-0.14758106699842843,0.3736319089879688,-0.18581372779537053,-0.0034448955351763233,-0.03785971377629,0.37279075341425744,-0.09022610097295423,0.31001776094485706,-0.23787737057403843,-0.36012399435344106,0.3338688040979479,-0.6557073487606319,-0.17681706647238649,-0.8833522941388393,-0.26490225979183496,-0.3144759392865156,0.6275525517230256,0.6586065850479554,-0.5863496973315954,-0.24076030584124913],[0.09148469924024533,-0.5700590944578392,-0.3504408613093432,-0.14898448182792678,0.3804324639406754,0.30788609269155315,0.5126858673157141,0.34983217878180245,0.1390774437409418,-0.18254151676731573,0.23959654044363798,-0.7889275016396448,-0.1901270341242415,0.03814493275081028,0.018393167179622614,-0.01676764875031816,-0.0911499478277403,-0.451250704694784,0.046999533696630846,-0.48586847711918724],[-0.16450365284072227,-0.2634372968275493,-0.06988759198872635,-0.38711030983308414,-0.2228106802147242,-0.6136700934454686,-0.11632285474561467,-0.14940919677814493,-0.2791342639933248,0.23581989031363565,0.3191266550945046,0.03131036206070956,-0.0862693513625458,-0.14499066727515558,0.2442170078165987,-0.01940144254866537,-0.2271770809461442,-0.09339765457082114,0.45236537748761346,0.1896266808541431],[-0.03941088212250183,-0.7917390096678646,-0.46426548656326355,-0.4355287591486366,0.49917678127841286,0.16200678501493854,0.22531054583770954,0.4064726339026409,-0.10742807989031913,-0.3194401993434764,-0.0328284935803951,-0.006209212028813686,0.05817566214981315,0.3513036342667431,-0.5454472682414211,0.16305666693409454,-0.2538715092536902,-0.21244495812977776,0.7761160062401351,-0.00034401375871476864],[0.2201800448265865,-0.3787122930359089,-0.0830054314207546,-0.25850095817249075,0.2584763640728508,0.33889547843092666,0.11100243462108918,0.04401177864278759,-0.14604039502244676,0.39473452059271974,-0.014844297874091222,0.2079721582511722,0.028712781349349573,-0.6003756026546532,0.3419376663430316,0.1349826540648548,-0.448774185830983,0.0070892165689023096,0.7396070293824867,-0.6744399351737365],[-0.25424095489050696,-0.2782978397206222,-0.2333692151347471,0.10552399673368262,-0.6297426541140724,0.2084781950522526,-0.4806097945677745,0.3120270498943874,0.3528287605436631,-0.14364081082248592,-0.16670241138067773,0.06805017622119167,-0.5495174136425202,0.18335415016518436,-0.22981619780177479,0.326087051682303,-0.2212653510372721,0.24262395508391987,0.8418385410376581,0.008642976915113725],[-0.1132502706986778,-0.033895102020783933,-0.09830911610510519,0.50153039536612,0.01645097965412677,-0.47123397690824975,-0.2924864591587899,-0.6281803687240943,0.22603930863760313,0.2746659363245037,-0.5783958716227755,0.020828629547396404,-0.27002907164385953,-0.4870430762866906,0.23199699395017476,-0.6956785256277277,-0.14078239264491627,0.06945749113787072,0.03002613497423132,0.059342150231011935],[-0.5471734199406484,-0.2239044208747711,0.07226292500119438,-0.5368539135257402,-0.02072584381293218,-0.15516815833677935,0.02107524705261923,-0.06906532994703196,0.28393909490857744,0.0674998021602445,0.07882595927120083,0.15782960964295006,-0.037364072966657905,-0.12794951259754733,-0.05292986227774399,0.02184935521806676,-0.6058994143044976,-0.27751787749380313,1.0434941217154523,-0.24945757804359547],[-0.18320945808311548,0.7538021717350155,-0.058876737376001506,-0.3361762858171839,0.2603273228081824,-0.4398286232181858,-0.06980907298744478,0.1533325071851337,0.692514705541425,0.08567218366301424,0.24559073275635906,0.5761135371031493,0.021283458599162003,0.5484410806547202,0.11581631975253301,0.7006942875893284,-0.52519737366745,-0.13065656508713375,-1.451013264842346,-0.0814767781701653],[0.6021328928584162,0.08132630501882554,-0.07646983222654904,-0.0724120754923247,0.020059454766370843,0.13846697115559126,0.04125037931850323,0.044360919215571164,0.1734876724958245,0.03768015789400913,-0.3069755398322122,-0.4483330215591608,0.5324241032588952,-0.4397813323504209,-0.12943876495765053,-0.7073902634532604,-0.20676336731432784,0.17847205490819448,-0.1897635329345147,0.5904822693459425],[-0.4566214810351881,0.18925587230419175,0.16177683834919904,-0.3216121238498538,0.1834199332600097,-0.006757348626831022,0.23333670424553285,-0.02760300942592697,-1.1460888916536236,-0.31203040825745465,-0.30828677278798355,-0.05541107974329654,0.08232941773288154,-0.1702372886582646,0.2604659680441303,-0.05147433467902202,-0.015686032929099727,0.13085863871143294,-0.05477958163239612,0.6076454911971761],[-0.39606177066153286,0.45903716891029767,0.24969877860105286,-0.21518400609796173,-0.31868449759940415,-0.11642219047804281,0.5587154433772197,-0.22823134914964166,0.29333165326904176,0.4501168617829034,0.18031542494801614,0.3087219495979707,-0.13276694082192828,-0.0227328852187675,-0.09346708973580249,-0.3006092757435949,-0.08909995812127396,-0.4640893310103998,-0.062353525001974844,0.38915964265329905],[0.30945056881343785,-0.31689537509557364,-0.2885069998209845,0.576046118796164,0.4570257234163749,0.5522899110074366,-0.6381211710836904,-0.5173066509625199,0.01980610450987054,0.5313807924751979,-0.43617475672748346,0.5328374991867962,-0.029433867030753628,0.4341613997828957,0.09288815800740649,0.05235342272642757,-0.22572005628191705,0.2950028531037733,0.6184334502258223,0.1185275505559428],[-0.6816242865910848,0.464960615775978,-0.37676991777264285,0.25121837007332104,-0.1559434290047739,-0.2842260152696881,0.12702900060082323,-0.5538025880082011,-0.40105143039805097,0.34492849454625524,-0.09504222276705249,-0.3571760674566322,0.20771952164249866,0.04773104881656209,-0.3781583177057641,0.04842640097876718,-0.1149857108665613,0.09665938237345492,-0.2790578415845286,0.3269810798868744],[0.2139030407107898,0.11768277471038907,0.15065193767756496,-0.20618536636036405,0.3264971699598343,-0.25994827322979636,0.27134376326483933,0.3273926408408822,0.17537989085762717,-0.5942199474964311,0.36153679027657715,-0.6472111962312747,0.2799794204779333,0.28866627415881996,0.14746386864233707,-0.07519465143472645,-0.22961378002050523,-0.5728236097055796,0.808953689082309,0.3421403319413294],[0.13272873880569774,-0.2043726861593572,-0.2278423549348441,-0.06291620967703458,0.10397851722661737,-0.04380552855260418,0.20278307286901828,-0.08418126010026414,-0.25796255943248836,-0.4398394347597106,0.18513331949810993,0.046227896123931016,-0.3002813019261895,-0.15081840413529515,0.38799761270237654,0.17399483384929398,-0.2452927160243388,-0.2694939564376839,-0.14486571151517696,-0.06839920437870887],[-0.11876703571767397,0.1534426740601808,0.3214447713780685,-0.179181825886558,-0.023615212952275297,0.29946862478018155,-0.2562170899718311,0.17889676354899234,-0.2447331745628863,-0.7434297492943175,-0.07509027062525828,0.17663093046711276,0.03677470698982388,-0.4037886165248038,0.08241071573094369,0.08593976982849533,0.37981061412207295,0.21070965173049144,1.527477508788993,-0.191504909226834],[-0.1135307805734978,-0.20009606196941565,-0.02990865121322086,0.04893360320860295,-0.3097383311964758,-0.30781057696442676,0.21382614170379893,-0.17027151051030073,-0.2963673001788271,0.24812643881464405,0.38056820663446816,0.2135274883985667,0.21774113917235394,0.09937082815511664,0.1992856533364336,0.19282820303889614,0.3692476967474515,-0.264374483914285,-0.15146453592651826,-0.2884727644524372],[0.3572248157505407,-0.0833945071475727,0.1191453310035633,0.26498994457005165,0.05524986520306915,-0.1928471900551062,-0.41288283281179883,-0.03291855228007838,-0.17368081852999354,-0.42587678279001606,0.13421775132886093,0.3730292288065125,0.1335497301748957,0.03301348947811079,0.28572964851505417,-0.5466247050053544,0.4461781160999702,0.29581551628338626,-0.7624214902892433,0.453558718441057],[0.5033182164018395,0.3488442225893532,0.20215192266705462,0.09493090598374768,-0.17204090285750884,-0.2756107845955911,0.1754003428912011,-0.30488423466807785,-0.5307498933283996,-0.40709409617649533,-0.45770176216253,0.1032022350577981,0.4801175135204663,0.037379498738347776,0.14402486875508919,-0.42551450494419374,0.01921943471855382,0.44249732390983537,1.040212597407408,0.02591972522852333],[-0.29299700930072964,0.07923399490723922,0.32656307093067055,-0.36581813528652074,0.16084633106726906,-0.2920266940216333,-0.11056512319059737,-0.3121791261421317,-0.12808383042841176,-0.2042828324631526,0.2513942808128734,0.05192823075442576,-0.5256975147300119,0.09328064144286444,0.24508653893388985,0.42895100988674484,0.2296784000874651,-0.19637233180837435,0.1257636134709225,0.3028271862900115],[0.15652758854710075,0.07963867622306511,-0.3458239332227499,0.02532637743907156,0.016890020005034072,0.43516185093027165,-0.18755935145471808,-0.1926458682390225,-0.09260853240218386,0.11699902573245534,-0.19357735306720866,-0.09262345949607241,0.6116801917943565,0.043075041094124786,0.4362537058734564,-0.5063263291703723,-0.20681400112245654,0.006336327974481536,-0.11160850903474298,-0.017183059134821085],[0.4213343297576043,-0.08573319643301057,-0.09063791357559091,0.3700004591802732,-0.09461643175430966,-0.23500530032101763,-0.07475735562225187,-0.08126516491196484,0.3133827927000154,0.08983403632064729,0.0383464001715496,-0.29613357015090275,-0.037073247788347856,0.1480511130627152,-0.0887152394431777,-0.358592066159385,-0.47677747909286405,0.21439641577413407,-0.5691751080343196,0.12348379950664018],[-0.49110401105238766,0.04139877637431819,0.28628390115121843,0.2836312765631209,0.699019997295714,0.04073640994180805,-0.09413858290761933,-0.3082134783663027,0.2316869663581537,-0.0759692693778134,-0.011896415291014237,-0.12696606435220303,0.027685299419634993,-0.24855325629106442,-0.5899023636487142,-0.06846959893432154,0.02850539228033013,-0.30846791516228983,-0.2537109451080768,0.04069459118202096],[-0.09871864955331194,0.0589411535260974,0.04178080213540104,-0.43781161299645077,0.21059880891532273,0.13803388463406815,0.2110082301359914,-0.13789264553866307,0.023271489222353177,-0.2773088953611234,0.09690168719462182,0.3865533168753198,-0.08642030216215979,0.0899574424375534,-0.01970448553898422,-0.27207261494858115,0.5796034234706936,-0.26719292728771527,1.332259517278194,-0.4420144019300965],[0.02908095730850898,-0.6064333033194955,-0.44209302867185624,-0.28967784125675344,-0.5865966502157752,0.5333781977082279,0.0737785657086616,-0.015269803566114754,0.13389225804248803,0.3700555060659515,-0.5759228381564178,0.06529930978038055,0.14223978268540774,0.040290884714911476,-0.1320061639691942,0.3641155600774487,-0.01765562525091422,0.24965559205976587,-0.09662154624368417,0.14416984848407763],[0.0731875104414027,0.08001766145464843,0.15045210077789253,-0.11683642038596338,-0.15630801588932258,0.06918118791037778,0.36613626821375145,0.050296221173326244,0.3877431938028619,0.06302390385357888,0.1655396971594881,-0.17369681812299997,-0.15207574553568926,0.35148111956127137,-0.6422165598452142,-0.048654689959830404,-0.9436361593834393,0.08158841208161896,-0.508085616149983,0.27836645143998257],[0.4567599801812437,0.033800806632844134,0.8157408403554912,0.2656663747234449,-0.19489640940533154,-0.26756038970227913,-0.5157245528513216,0.19282134097268444,-0.14796116484705027,0.2420560926433685,-0.3700883617167699,0.010582611101041061,0.16333925309205646,-0.16309805596524102,-0.30375468056327903,0.05537883405287325,-0.18432677076008688,0.3364065651620641,-0.44033301348761766,-0.26373379330199803],[0.6811458924132116,-0.2856765580301191,-0.8709839270183757,-0.4167194385497418,-0.48682009615903893,-0.16459798758059296,0.07334691295229193,0.3335898642344505,-0.009392767761005227,-0.2610488281817446,0.769135745087869,-0.3041735423508231,0.17983131358936605,0.6156772154395832,-0.33416754799358783,0.06482160514395392,0.1258332788938829,-0.21993986163577567,0.37432720619363613,0.19977238977888134],[0.10091810937059019,-0.19704345877861112,0.0036535207288890927,-0.0009110645010739947,-0.6208175927159352,-0.4176398873699824,0.23107005291041718,-0.2867945109689859,-0.33694051757793914,-0.38169386397013944,0.24853966664197358,-0.4850821854148729,-0.17735242686478908,-0.47056979712345365,0.19859844025425635,0.12109284632183118,0.13278760158926456,0.040223678548429974,-0.5529566785990987,-0.33658501833068827],[0.2587736273082974,0.45494139187618177,-0.4731852025561087,0.13777256369920513,-0.16708749049950242,-0.34876595463765414,-0.578235257228412,-0.386084309176259,0.2122065542661481,0.20808358646423686,0.41909949804245283,-0.7153072618983954,0.0809161121803918,0.06180968865184297,0.06299042648562267,-0.04112178256882159,-0.20128980476182076,0.20862825873389856,-0.4110408857178709,-0.3841663365021874],[-0.13387491319425038,0.061029654854977175,-0.2238598918433305,-0.08604266874184288,0.06288892400158633,0.11729624864373549,0.025156572866015515,-0.1365599525342685,0.8331980427800328,-0.7544520501005233,0.19725426268513138,0.10485129783749607,-0.20074631906034165,0.333886794972307,-0.007989386939176224,-0.34262127648770735,0.15495554433972691,0.17710983374933023,0.11525688602802318,-0.38955083911055094],[0.868918071589882,-0.11629924402310349,-0.04994243121429976,0.20883963068165978,-0.7067759337913848,0.3686857594652187,-0.01812796026593335,0.27180723380950644,-0.03549203412008382,0.32959909836637546,-0.012288828487498071,0.0703013113780092,0.006527061702310136,-0.13141955533700828,0.16518960960643725,0.23317627093287002,-0.020743179748476757,-0.00794315249798043,0.5653707460615318,-0.19139872590648635],[0.6757432406399071,-0.025324906900417027,0.12463482895168472,0.4392483282246329,0.04756226436449871,0.08519757182006907,0.03684975143467908,-0.4043542738245304,-0.07115701174154582,0.09363934747137481,-0.5380829106295026,0.7955604300878979,0.08947800984213672,-0.15915903958147132,-0.4861042228377342,-0.0990240071092394,-0.34339046307670607,-0.4294503340608698,0.46200166257209724,0.09038061693700707],[0.2672494039892597,-0.5174650358822606,-0.5049962094776133,0.3989140853037651,0.13251648060994764,0.10108071265158826,0.15609220530646126,-0.046445019728437634,-0.04834989056857991,-0.2372804251118512,-0.21375347597876576,-0.26824534975581016,-0.08781655191817918,-0.7209474301241724,-0.03385623358418286,0.15937315394918836,0.1955266560124465,0.008547152450814815,-0.2987934635526648,0.24257259650287188],[0.27269716005652794,0.10660520192172923,0.006352631480860627,-0.305735752170961,0.42125408646074153,-0.30158623773101334,0.25050196872401553,0.3574766550404587,0.7092492328149306,-0.3787174030494168,-0.22954045650553384,0.5334560160172335,0.1808125369773498,0.32829536320175096,0.30946000654954836,0.2264125299546326,-0.17495870699280755,-0.1039779399819278,-1.695538137964975,0.24140915566973636],[-0.3249709094818133,0.00648577665787416,0.26949258476583865,0.16542134541151715,-0.1920414632067475,0.12977325865837203,0.5024310577774681,-0.044964964844184004,-0.5390659048047082,-0.10250105660858054,-0.14839214005936935,0.12048156983619888,-0.1419126389860395,-0.15652481872022797,-0.27924284825255,0.16753613838650383,-0.2821876530137696,0.4912524980923612,-0.5418148449321079,0.2677996295196435],[0.1235750571861105,0.07528256889887837,-0.4176062704744877,0.19698424784247592,0.09082536880936906,0.0668975573533882,0.24012255666171956,-0.008790726991778455,0.01296314339306581,-0.8137183249574063,-0.04547743932123843,0.14353899378850693,-0.3817657958467142,-0.2568468747003909,0.4326766601614445,-0.2103360196139245,-0.3580619845102603,0.14411128657315775,-0.30022444389881925,-0.07764446743983365],[-0.4729536705783856,0.16701172926295696,-0.14060048704205763,-0.3194230629952538,-0.05944246815813321,0.2127251624654064,-0.530514476909011,-0.0728759221391242,0.2312141988859142,-0.31200279235838707,0.27942270188064144,0.28725369454314176,-0.19010851672045476,0.5808068966273909,0.22470392666584657,0.04658099551405687,-0.3453183092690327,-0.034586461734013564,-0.8290827872988609,0.3215509086829011],[0.41515557388729923,0.011855217242316715,-0.14670573097858003,0.17046930713155797,-0.44532115548575457,-0.3764589220637335,-0.511154570314402,0.4359866386898487,-0.2995660726450222,-0.12368745449045089,0.06861740958835622,0.3047719750631898,0.03506237019187751,0.5902440247202548,0.40806773902979343,-0.42406587373701865,0.352894242610472,-0.24365617478173007,-0.1079952280237075,-0.32993489609190524],[-0.06607361493466335,-0.15913815355632246,-0.154977048705509,0.5984724158407118,-0.07228218343029637,0.002801688802865481,0.18592291278475723,-0.7537860812167837,0.018846796538548777,0.12706407551798837,0.09598971994681445,0.023867675385227428,0.09069929374832923,0.10905790455798786,-0.2747871500540091,0.5631452790126117,-0.4107322501693107,0.07628951441807953,0.2980076239386693,-0.29301889296876993],[-0.5843575561624077,0.3643552863386005,-0.2698377683215911,-0.11422311405426447,0.1296980595670804,-0.37936151606629237,0.1729752889709096,-0.135059548337831,-0.027462342083880775,0.052014348579942686,0.12501818952194857,0.11091910943372205,0.23003992339037543,-0.49229628609740345,0.08129609968907796,-0.45826477851768543,-0.2979190232600025,0.08694920159782285,0.9505436153189695,0.4542075658567457],[-0.15428650097407604,0.20061374126921122,0.248322824251487,-0.4778724479831841,0.018421431353974935,0.05694333420480767,-0.15903405135631263,0.5989062202673253,-0.058735436880195786,-0.0065338102459983755,0.3942099750622042,0.19546247247679036,-0.10407754748172636,-0.4381086768130798,-0.35635415693300043,-0.16587415705235983,-0.2202679877644765,0.5420109904269234,-0.3956690823468467,0.13424009235654533],[-0.22600239625353266,0.4734541796894269,-0.3324684024076587,-0.3598585367001512,-0.27829778030589397,-0.6869058148247785,0.3244807858224535,0.16661684308000604,-0.08597415012965119,-0.026169216126320075,0.15471897858357017,-0.34811439514353354,-0.059868510471320344,-0.012324831215909276,-0.20768799144090105,-0.043289870753955295,-0.035762025624954646,0.5156952841230411,0.15554527703259868,-0.8519111889931891],[-0.1637400927380343,-0.19367035029817606,0.0761410568689695,-0.018053184255914498,0.01947827356216565,0.4632749952397235,-0.2733919049605003,-0.1156482317844653,0.3690487421442834,0.005282447590436254,-0.04364315835179104,0.4579305706690591,0.014820431162731306,-0.5338254158797469,-0.23051433947598612,-0.24876667431815036,-0.1944877648533028,-0.4404845043052872,0.3161685214649533,0.2497344315057513],[0.42231594872990974,0.17688958395765864,0.3783582779626208,-0.19351562446549497,-0.37052582698809644,-0.17009726345395876,-0.8464605226923222,0.09258084121802718,-0.3276136893091119,-0.3598304071643745,0.1512104065599602,-0.1102502203272323,-0.5730499697030679,0.6785454854957841,0.2523010225710568,0.19938650293291857,-0.3062786743736277,0.2825943774523642,-0.15350447453489888,-0.26488501299633377],[-0.05823603348093915,0.6980024647048286,0.11520471571381513,-0.15197546682960236,-0.1714556690567891,0.038081755469917544,0.2530066331288615,0.09866927725904402,0.24044172813775058,-0.10945344821784547,0.023667447020426988,-0.4420988729172214,-0.2491977385003024,-0.1254512407907731,-0.020459943845397552,-0.0011036883176393127,-0.24881636564168275,0.12810694687674548,-0.22967695478677286,0.15175012563395993],[-0.2543708812780167,0.3252742926489907,-0.14923796053307756,-0.02652368873818335,0.1606506575177219,0.16703178209593125,-0.4960142853800635,-0.34222004398962547,-0.3575238608723432,-0.04929887445966831,0.22788192979382524,0.1237014723276663,0.3161374244142198,-0.11200068187232921,0.24292842043853524,-0.14214594060850616,-0.09833487640751937,0.23597884376939163,-0.05890597227313948,0.20299078825048447],[0.4165971477747805,-0.20960924499192968,-0.6962020571239323,-0.19610701239876374,0.08814805790079897,0.0330410468002345,0.20488896507901785,-0.5640284180563833,-0.223028031200123,-0.2940209476920757,-0.48736585885800604,0.22104679687002357,-0.21870018776217157,-0.06331564337816366,0.16881985767749125,0.16126129800115746,0.24657723046167632,0.1157089118133256,-0.45206890688744766,-0.34099746793152014],[-0.5176168253003806,-0.0889872729004425,0.27853533346336357,-0.4850414203588838,-0.09418315224392612,0.17882760777253146,0.43637387492073965,0.3743487780587234,0.14720872624764805,-0.05779678878479564,0.5277829346101971,-0.5747868316129511,-0.1902718194655468,0.4643797665748867,0.46051375514252524,-0.47158985221584504,-0.10248727072550026,-0.02492342065520918,-0.39664751526440944,0.5258968262538882],[-0.08684299847628305,0.6114512604985363,0.587915164983194,-0.45073778024898936,0.23094301663009348,0.35902002149195866,-0.4288634968468943,-0.015450758709386904,0.3782774186224513,-0.15116816969753472,-0.2738450268060173,-0.29835470892029853,-0.08534365938513885,0.06832616856397139,-0.3006455343448591,-0.43453837267609713,-0.051456709699453373,-0.11371688212652878,0.8223491820510123,-0.5987371140796903],[-0.07448350747724043,-0.056797412218465,-0.8955821124902865,-0.0542849739214159,-0.3828241833367457,0.16337605449602288,-0.23186289783745195,-0.37534985408181226,-0.19101317805266183,0.1647928336560872,0.7993393080131719,0.10052652051471983,-0.22847138652993385,-0.2591034579187257,0.5150926747620185,0.22308630646014238,-0.16979636228211595,0.09342360909671897,0.3494386784613294,-0.27104453525230904],[0.0060165951357264,-0.11847970822696534,-0.21954779610132152,-0.2984388353420934,-0.24866765565933371,0.08185637137460153,-0.18763644993245343,-0.488419389034547,0.5200759995169786,-0.029847554785793727,-0.004328229278381254,-0.32397407156553104,-0.4310033143450343,-0.020453463889835974,0.2217153227649569,0.5988070797166065,0.18426810986909517,0.21805028674989005,-0.3029711634119622,-0.08351623779908122],[0.24425059890511236,-0.3376424273547318,-0.17232352135124673,0.8258133260717911,0.4573944149765342,-0.5112656991376976,0.5469112463440753,0.04443907099535818,-0.060670090658381956,-0.08539983813039079,0.04037382603079747,-0.4917258604756061,0.36092849141151306,0.05235706767968268,-0.8527247623690027,-0.1627987751977192,0.26837069658901647,-0.2587457333606722,0.9491587645395969,-0.32831851270335805],[0.30480065593554617,0.02264566730580394,0.539922543342604,0.32468842488456146,-0.17876916940732465,0.11303555683461453,0.11743496579906966,0.16650842234172583,-0.14043458526721386,-0.20315048860214158,0.6254448726452118,0.3476422100227878,0.5862899557971597,0.15895333657709904,0.10164089284821065,-0.28817474776491886,0.07249815895891498,0.6031314174875005,-0.5486472844195478,0.06211673360700631],[-0.07114074528060398,0.094775606465184,0.2307377655815834,-0.2802012732503447,-0.2802158290344114,-0.06758604455844093,0.39033408058032343,-0.040815074261631314,0.010692993006578297,0.1285094882239403,-0.24722824586674236,-0.23128210336142963,-0.05457999476049741,-0.1419904445497361,0.25805080564181276,-0.6164107280308669,0.06624319150798452,-0.22763976283138543,-0.12138655826647139,-0.5488426700593086],[-0.08374496100791863,0.08118828746498309,-0.3683407362189338,-0.39208352314437456,-0.3085851039274159,-0.17465364608620976,-0.1282018153001424,0.16950759824449443,-0.2979190702241858,-0.332720229728425,0.2370206683113747,0.2970567745533543,-0.14804039983243125,-0.18220874525678452,0.28070573695586554,0.4941059138423665,0.5053839117453822,-0.1817705361848927,0.3862749355672054,0.29912302928037054],[-0.2750342473172885,0.4120816066915249,-0.45243451162685683,0.1304869219867625,0.03577248770695281,-0.38200433303784265,0.6029389638400802,0.1746147596193834,-0.4338999354219615,0.04045693602042849,0.24816589437008005,0.1744325718633955,-0.42355759160724676,-0.4690009457550784,0.18176497817066822,0.03656372694853492,0.2974533005658392,-0.03631111660756785,0.09463655267661066,-0.15883178428520597],[-0.24010621067772664,0.05763257917518751,-0.21111487787804262,0.5807426527059618,0.07254906107830146,0.009884460100247364,0.48995757770389353,0.10597277827121328,-0.08444145035159131,-0.22295461649421233,0.18211825546318516,0.10106003855426364,-0.24400940676114427,0.7382886996897479,0.06838074449571871,0.03128794130667049,-0.566016289430613,0.12474097093283645,-1.0238597505045954,-0.030821671028781923],[0.05530545577280699,-0.40662132433228304,0.635114134786771,0.1996861038482928,0.3729587860750583,-0.07843668926567443,0.42144861180611426,-0.5308861425332366,-0.3679687522731942,-0.3602497131679905,0.42080204292206774,-0.29385813267150124,-0.4715276350119953,0.14022725264303815,0.20656179360729113,-0.5810239697843115,0.11033945672956093,0.16926121889530718,-0.4862678875529895,0.24877410892437443],[0.20179768467637835,0.11959690960525375,0.8478441886875636,0.2678656370850012,-0.6663534661016018,-0.41054475076449964,-0.3627970092467372,-0.01745559181736896,-0.24461181241825583,-0.004844075767120337,0.20250272444183132,-0.18955756783639832,-0.5352181391640338,0.19679138790947065,-0.06927732388415031,0.4980479931252864,0.15917363878727128,-0.5076100522431931,-0.0011028951516552949,-0.3081493661078854],[0.25223250421465804,0.284132569118624,-0.10388190401790384,0.546140178607389,-0.37877950298668445,-0.6041740787238042,-0.033316685418468606,0.09148669242256358,-0.40738288275818735,-0.2474201714904124,-0.6845872162051249,0.24453212978845593,0.1067556953730277,-0.33155335739607084,0.2574946661091699,0.34783835151584874,-0.08955002073870125,-0.33058353279288744,-0.09991381197827039,-0.22503525469928828],[0.012419631782649754,0.0987300370662929,-0.3736347676623281,0.5567170339009878,0.0391107356032707,0.19945614557673555,-0.0908618522358649,-0.1340652993812008,-0.058010943661526114,0.25103850818819656,0.14097098443152037,-0.255369334980675,-0.3172637413408862,0.06484368546524082,0.5804642292224326,-0.31699424837309886,0.1533289585757628,-0.41827565568894276,0.7723415403589439,0.4874214126487974],[0.06052283646594539,0.26930283660042115,0.37598468696547077,-0.8660322477825573,-0.5344912814877233,-0.15164362254384062,-0.4121462241023593,0.014366565141627171,0.015268362180378196,-0.19043840277318033,0.4616111447183104,-0.17484469548961995,-0.0202171065553279,-0.03678273548869578,0.05753092100727209,-0.39892904448337696,0.28455056644487736,-0.09741781568513525,0.6350191009072823,-0.2686517323232334],[-0.2167792973828628,0.41729973081402527,0.6539221265453284,0.32930926926306286,0.1345821523904786,-0.38633460189696006,0.508003884533406,0.0726883894282054,0.40463815741427306,-0.2214382913694355,0.12921695927403054,0.04537291560783889,-0.1804768119951906,0.35715765037571184,0.16460587993877562,0.21048594445001334,-0.6785552991732381,0.17053523425396963,-1.2397404165290464,0.0496936288470168],[-0.019170483042854406,-0.18683010019393456,-0.0372028634891081,-0.11297179721357645,-0.39150028791475083,-0.040036935825478674,-0.5831511455645353,0.677473913047932,-0.03331558177467109,0.2631216189666438,0.06792215101800983,0.08946711486466526,-0.1752774453015631,-0.22466566962436665,-0.42819146035548294,-0.7387804652984395,-0.5035324430939662,0.07284021510909439,0.6517254706769035,0.6064892684999514],[-0.18330526029360064,0.04165178996777039,0.36212699802629245,-0.16502303821105216,-0.4353208589808426,-0.02427053767489579,0.07751192993992904,-0.3000885405669523,-0.10184708723100293,0.31101747074724234,0.15654973439103315,-0.5102856029187444,-0.1526734100313142,-0.5531350130177812,0.12841429259441098,-0.15627432615964768,0.24822669442817855,0.611415742371465,0.8322317012507265,0.33995771500308425],[0.025862687419453422,-0.10519538371187152,-0.2575461525520287,-0.6128342307756971,0.23077887602189262,-0.5091224173194169,0.46493719215032825,-0.21459777221098478,-0.17040884760232305,0.508541809409264,0.3985808368976806,0.07518731747152001,-0.2218162128326463,-0.1237203472091734,-0.09827384010023898,-0.0073422393124923145,0.4048399401323023,-0.45603069800859936,0.5129532068798442,-0.06292853110182442],[0.2926180163950017,0.2220881667308006,-0.0846363803672226,-0.20874518076259302,0.055215802164636035,-0.07731170075202666,0.013559852260265971,-0.09741864765508079,0.13744433375029705,-0.13152104380724688,0.08463800335279321,-0.26416604980125524,-0.40432532717603314,0.11501741597094543,0.2058296137969322,-0.2799595624335603,0.06446764492549778,-0.11035338719856795,-0.8723104074505204,-0.04977454571995675],[-0.1372726770053776,-0.5147639340436271,0.3379370465036877,0.5548514935270722,-0.13168731946354983,0.5523250117659397,-0.03921059601866705,0.3773450375485583,-0.2288347958478447,-0.03297558362590708,0.08699042469072982,-0.24695144890350554,-0.02704377033180644,-0.6608473971888976,0.2893634164639016,0.12521551114488355,0.8873019132604555,0.0476282713469895,0.5459753532967703,-0.00716222881649123],[-0.35011853030269025,-0.06269445639846652,0.15168160603498235,0.5728881457263968,-0.09364937086884739,0.15671537813999825,-0.307635663335289,-0.1671356413430009,-0.46442494962697584,-0.04826373156077147,0.3942654725196451,-0.17631348054207033,0.03115096552393355,-0.20632693763185356,0.09840523742385907,-0.19224528326446633,0.20600093053264945,0.07558753283649587,1.126547668993996,0.3578433586395093],[0.22174170530547255,-0.09203480157023186,0.40794315402368503,0.16973590694882476,0.02891330867474582,-0.3876072902025298,0.10643211681708986,-0.031175565769070497,-0.004581359329984315,0.43716886769597313,-0.5466721648789757,0.48949693772136066,-0.19868231673014952,-0.0023206856990493087,0.3833276187942765,-0.2842767914960909,0.03961682995024672,-0.12946260345123614,0.4636062295791737,-0.0916001672196286],[0.6278494644471527,0.3718332897942452,0.17830395137601915,0.2530754266024234,-0.09086474149533944,0.45171303077380465,-0.1086793080255579,-0.35309211140274466,0.09904444511110932,-0.5923140326810795,-0.07476518954341008,-0.4332835847352993,0.36131904196745757,-0.019162276186553882,-0.851043815927457,-0.07938328377881432,0.27434504185692016,0.15323464282910626,1.8392050183015394,-0.015686025442578157],[0.2743960098055925,0.5910978928314832,-0.26164023909679973,-0.0802385614083185,0.003453252632997335,0.642639296684394,0.4485097865276918,-0.28546485911669434,0.18641755895532688,-0.4939071971024433,-0.2209793191323941,-0.244524527838028,-0.14809678086154499,0.0811063440772331,-0.13608548241831153,0.077239555180257,0.043416057350736455,-0.6477841410301945,-0.5579988699961833,0.09989652720563391],[-0.048212422235544575,0.04443695181373005,-0.30500599514034454,0.38574403884231206,0.0959822613904691,-0.5011467185363206,-0.42585594736135446,-0.05262167402580899,-0.12129717797257233,-0.028071061657968285,-0.21461185655013473,0.14751917914506965,0.32960267078887767,-0.5639023738802671,0.2635411354161732,-0.0312161781513559,-0.17023790176232642,-0.06187830624870741,-0.5259951328567726,0.670182691884351],[-0.22131042842216336,0.4248008344891565,-0.1157448153277871,0.04865647735600152,-0.04837247827261642,-0.1008063465734367,0.0976137339718396,-0.24678994802004933,0.13815980015195437,-0.2322591680483557,0.11230510635721498,-0.030860049278946644,-0.15824944317177164,-0.20801675048416998,0.07669603394223531,-0.7142609993288523,0.544079870032291,0.15937259588354222,-0.5984500567171207,0.19706066086818874],[0.14128861482910152,-0.36007535209817426,0.42630588938811514,-0.15960203997125616,0.2658375667918684,0.724372591613849,-0.044526314642567434,-0.45182252803250256,-0.08897667089104193,-0.6739408677652741,0.12812247359719883,-0.34908345599961593,-0.606615259577711,0.004162869602767539,-0.17364364106080743,-0.1108337212820315,-0.46013564907778254,0.0014636583142027192,0.1456846906145344,0.11704220363074244],[0.23258912919537916,0.47305276854323347,-0.04320010422781688,0.07218131086819847,0.25213124392555075,-0.08627699164236018,-0.20707660416100693,0.43707149382687194,0.18142932940181133,-0.3354679555464644,-0.10987710167288571,-0.027997711308662233,-0.7234683630684352,0.06586154088113035,0.6114209906940365,0.7054089763213734,-0.16583560391586885,0.0527860325104643,-0.8312408226549046,0.27731613130239763],[-0.5942088170944769,-0.20749854149347466,0.3251014450603571,-0.5487054350757057,0.40054917711041366,0.28032349435129467,-0.11228854231341467,0.48346091928546336,0.7787807858897556,0.09726432165274883,-0.08947860928847279,-0.3123515767889209,-0.3784523606844471,-0.061876523619582895,0.1706727634090144,-0.07880238198840678,-0.4569617426457755,-0.13073657373732822,-0.8766105651194045,-0.20814062908485229],[-0.12682332889292608,-0.3389386427532419,0.14873005536398892,0.2000400359921275,-0.4806010210406415,0.30219898481331925,0.010096238444910236,-0.674106642008546,0.18993210771536626,-0.24663001677825092,0.30532047339508805,-0.005870539002133157,0.39123158565770616,0.34551328001854836,0.6034831217279649,-0.21784014841570667,0.14212085295398746,-0.04710260351085922,0.04292952434729382,0.03775902128870247],[-0.6827610591636563,0.5275460778826347,0.21344695549711312,-0.15063268331813198,-0.1256173593883336,0.19831364905051,-0.12528435468683527,0.16945452484911544,0.06227037951723313,-0.40469582990973807,0.32429978987662117,-0.08393548855703171,-0.13101434824546873,-0.05235722143994051,-0.4607361557596407,0.139365048135129,-0.041866980674577066,-0.35644956413077034,-0.07975434531815746,-0.390464163454637],[0.2533477453509569,0.33578372579218985,-0.039413860397833005,-0.4222112582067096,0.1546173727772537,-0.4102649753225472,-0.21612160840165975,-0.11691814096074901,-0.05277868028077775,0.1128535900561921,-0.15212931471138946,0.014743503219315777,0.46956278706642607,0.23270895617479612,0.19444876824162166,0.40751703956882784,-0.40012306119185187,0.17507463160092518,-0.11081170459578461,-0.4770078473477405],[0.2864005355462671,-0.49706880808602705,0.15935068091954974,-0.1724324151885556,-0.26585613814746073,-0.33815103095992816,-0.03296392711315049,-0.3268878766115998,-0.3537639527002081,0.011466102760852418,0.5420776085018882,0.4912502345179017,-0.48097678873577043,-0.02824228919797373,-0.12654651655499413,-0.0029816954677226795,0.367636877943175,0.472327184086618,1.5436975768924899,-0.2940754123558994],[0.16672585412408059,0.13917993256433148,0.20343192376765215,-0.2611919664232919,-0.24988800508282782,-0.5567403035125064,0.19733464855036525,-0.2869724422100155,0.052997507589434216,-0.2515955971318262,-0.31180663771497236,0.4136714277682242,0.5322900764503579,0.18390955816675386,-0.20942666545380229,-0.17358851633842698,0.06296661881422105,0.36199766084811286,0.37320729052174506,0.04615708231977418],[0.1540909629073021,0.31621968316596394,0.30108263942674124,0.08050317111936059,0.04701112897734949,0.08792133921513286,-0.08548721454734134,0.031815921143447994,0.0934974478064638,-0.18713168780677603,0.05730312468434272,0.22941311207895618,0.2149158892687236,0.3682080288931923,0.2441392907893225,0.26736261086933377,-0.14122476726922595,-0.41960354937188804,-0.6650693071304727,-0.3296301859497715],[0.1491378635065507,0.3808231601875962,0.6626731277258168,-0.5086563591670973,0.45561850940779847,0.420036510441937,-0.30852008815701554,0.21239340245362953,-0.06782502838505237,-0.05555097783136677,0.19427144422549178,0.4849831837703752,0.10795515253375763,0.6620241502806897,0.11878222442687168,0.027652488880853233,-0.3722027687608649,0.20343442009413393,-1.1497159998872053,0.023098528989282906],[-0.5244473962340717,-0.18834330470039654,-0.09089095461104527,-0.14959287402266297,-0.444999230107779,0.40968548399290344,-0.22693844795027107,-0.20124607951926415,0.573704833021455,0.033428061535524044,0.5371907204463394,0.07150185057557068,-0.15778757988103745,0.07870281026757664,0.028213266027209423,-0.6731799781575597,0.2780032154183901,-0.1636150788607709,-0.6791981869101646,-0.15346149821899988],[0.40625386394238516,-0.2769541844529756,-0.2566355020453711,0.36373775915831813,-0.20171980144098586,0.04990959248233759,-0.15773401856288152,-0.5441043658771025,0.1752916517831485,0.2518317055982383,0.3766330017163863,0.26255817159849687,-0.12127479106533917,-0.03081848248710728,-0.3447686772354888,-0.314512101354841,0.17727274304852414,0.06121738762862244,-0.47831664167229354,-0.17188212664659058],[0.22245478241792346,0.12695204880005267,-0.00911532333227421,-0.6131734774752723,0.21069676581298927,0.19694685688158953,0.19030086149723743,0.09588244778633281,0.4791773198881216,-0.47783924405068495,0.08959978099112398,0.45049519133328786,0.15652410832007008,0.21575765351613102,-0.3698344387812092,0.10865404900409696,0.12401845748468557,-0.9145696476518752,-0.10291587201129798,0.0060558579456096795],[0.8291970352041007,-0.5987752489468819,0.09037563219980381,-0.054547958647575646,0.20976509439878618,-0.5705943664999967,-0.15540102826760172,-0.13148258751272277,-0.21549496780088423,-0.11188470575547392,0.6118886195207541,-0.5848189640254653,-0.5012708871582521,-0.3289878908413899,0.04379978984320447,-0.19557293301757112,-0.36091130079283557,0.06072409324838038,-0.2974542264604944,-0.05478154116069159],[-0.17390645210517103,-0.3709287263320546,0.04215742803988683,-0.007549839714491119,0.47364010169563175,-0.47645665348405214,-0.05701364273315594,-0.4947585842817318,0.30428122571502786,0.04188454861398155,0.3745526625456551,0.06279962173686926,0.7989374350807829,0.063225734718285,0.047739915216056236,-0.2349805509846781,-0.24030103363597338,-0.19216797495050744,0.6145777615464532,-0.18548025769624027],[0.2690791163151194,-0.3959716041285976,0.29507960051094656,0.016112326942104484,0.10913854514098008,0.08591698855504337,-0.18365756718416013,0.11434725029029917,-0.12836844355311716,-0.1015695334552373,-0.5091922367290452,-0.12346780498452999,0.07514620215696038,0.1841915353367951,0.6541478202527162,0.02701623895410514,-0.1150002144483182,-0.34119622629146157,0.4156698762580299,0.04503109853110531],[0.46274624204766407,0.0016303862120152105,0.11093108366987056,0.6338946747540983,-0.6294915304001962,0.08160643450629344,-0.14995842227824008,0.050770791477697017,-0.21864116788894467,0.3056663772842004,-0.22257194556881293,-0.2758486399288526,0.10571554268854813,0.09573939160740448,-0.44070011949277516,0.1850145777343977,-0.1459101955302711,-0.35500610732647575,-0.256675952351008,0.0343486366898631],[0.2625364676904861,0.32016323027684457,0.6700482624995489,-0.031165100183056647,-0.1072020749578574,-0.2907113209770337,0.44534587482706445,-0.3474060471352794,0.03502648777137028,-0.2479137209155134,0.14017035865539687,0.736315877585049,-0.2387191821494279,0.5700528593220417,0.31427411683912576,-0.41726481777174146,-0.08444109112923157,-0.19658721680227254,-0.4168362603246663,0.24155185205370727],[0.3372987282854069,0.4580102603925625,-0.20887427008018675,-0.7847096523502122,0.08761396450177872,0.010796284530705252,-0.10016854456068094,0.2922812049491212,0.47978741903679417,0.11294976643169694,-0.6172246224426586,-0.0590056435413917,-0.21065230079194686,0.028884356436959992,0.1668186531691712,0.6693482123036184,0.22110058118060896,-0.01943176082902813,-0.22054237096213705,-0.12595378501809357],[0.26055767392205037,-0.1915022805623528,0.11343278358076224,-0.12369013761715403,-0.3875748068810069,-0.48645356369833126,-0.26645118439865956,0.24944322083667445,-0.11168215647187528,0.11375041065823913,0.4859801071701239,0.2122324667506437,-0.013106045101884036,-0.11350946960604796,0.134437083339626,-0.06049393758346694,0.03437605799146174,-0.20732090790221652,0.1399829775932652,-0.45023926649260887],[0.17446340010415984,0.02458595158682312,0.13329688054687328,-0.42069680842289586,-0.07101284301791541,-0.10444118774313274,0.3618468902148577,-0.255082424530028,-0.46977184016069656,0.4361124986049558,-0.261835896338658,-0.07333120358744602,-0.36858112395812026,-0.06318988011006868,-0.5661501953361849,-0.0845585367790349,0.24167097708627833,-0.031143358030546464,0.6461887152871111,0.11551623126023029],[-0.5131029626387119,-0.3639250188255201,0.19822399798743318,0.04460930065692285,0.029432359283680744,0.054121788621355596,0.20327502620119264,-0.31543988512039295,-0.439540615504477,-0.6328225046522097,0.2796685704675319,-0.4024430646225543,-0.4539851155793953,0.16946581140709585,0.4179563200088887,0.14367420853979793,0.030686506192626077,-0.32308029466458155,0.0819934463777625,-0.07577692369909254],[0.42342599989237156,-0.043808291189885606,-0.20540152435207354,-0.030737033656109903,0.14759118092359913,0.03975180832995795,0.2922281386854586,0.3891046064104107,-0.08466626564801424,-0.07212459690699839,0.06709605557349403,0.22288925231478113,0.42948162650861044,0.03761268441698886,-0.21256086365079002,0.23805226654528128,0.15249704991105703,-0.5089788756620672,-0.6430734627035487,-0.26042073013596695],[0.2310966857134466,0.345600664506247,0.40369053316174675,-0.27690397564494645,0.3206605207244746,0.13370265035677686,0.06344875038679747,0.6288757956090699,0.18032740259262145,-0.14349108783587888,0.1445350327572174,0.1552791880951916,0.1602835879189163,0.20168481170774732,-0.05354726875501756,-0.1670276427018429,-0.30848704558207446,-0.269844409948904,-1.4707480331604632,-0.4976158018366787],[-0.06362329875451277,0.17370004134074649,0.07283852557836314,-0.265946362111336,-0.07994846946934189,-0.03374913979194533,-0.124074292760471,0.2546432232429012,0.06094259747423366,-0.1354087263603991,0.10228746173754358,-0.16900262523975862,-0.5401738190201022,0.2428105332636541,-0.30572758952481893,-0.28733055633601096,-0.08289759716560087,-0.47097565469527003,-0.3550323970261862,0.03230350279172453],[0.09548191007850926,-0.4346722194294901,0.270308256150739,-0.24464869715388968,-0.3385714442904426,0.18940543243796173,0.1836578027525915,0.48703219388957447,0.062141273514315316,-0.8451738617986183,0.20666081939319822,0.023273203422894424,-0.07312664281833574,-0.21974329405300824,0.6598384768582174,0.5858312300811854,0.18462678016695472,-0.15765178395158103,0.13745670185322906,-0.56074881941464],[-0.24736301922584117,-0.21344681433770768,-0.1935319322741483,-0.4772139074684908,-0.12496384246603279,0.4047785512000422,0.13881848244465245,0.5077790946627959,-0.3271226582477708,0.25849451189950295,0.137856603004277,0.2044379532211701,-0.06247705003584534,-0.06374698092834076,0.1633030652843657,0.3718042850958384,-0.16902727067474382,0.2693124658908943,-0.7554003868128891,0.12456269834758132],[-0.6147947053000156,-0.23437429302180326,0.29978839254043804,-0.11046435101968781,0.15328358943772963,-0.18251342212955204,-0.3675179133090221,0.5816427559226061,-0.15736896270290202,-0.009440088298480535,0.49471296743154397,-0.6186567497059299,-0.29745190335434907,-0.27836256131130793,0.16389302428072053,-0.5649975683101411,-0.35733468681494696,-0.2294196091633797,-0.3688973147784661,0.8824904768958273],[-0.401154311504158,0.03436448276154378,0.19695090337656637,-0.3552959443761862,0.4815432490142727,0.0866226817989344,-0.30116148522589664,0.3421026319187013,-0.18333653322653234,0.2443441632242004,-0.49330327184100864,-0.5304357984288799,-0.16500211234656198,-0.7710118418813249,0.023150745290093054,-0.10315925420288242,0.23410269161815828,-0.744147833543166,0.052082807302505835,-0.20929433885373117],[-0.7368949041337628,-0.22205649728496246,0.0011663591528836565,-0.16872683086401222,0.3643857287816062,-0.14577724884486906,-0.2693366375049983,-0.35627276611071285,-0.07888521611094072,-0.18078594961433447,0.33365513994628465,0.7953187792848834,-0.24321817528652076,-0.08918829925959453,0.20878506752019352,0.09928629462398139,0.1072106873276032,-0.16543063859063034,-0.004979526170897839,0.022844301011343174],[0.06091107088566202,0.07534931432915282,-0.2550298996965445,-0.12704400153990303,-0.7082752365617316,-0.09859250338296799,0.03514105513851134,0.4773819686119701,-0.18511885693290508,-0.13014854073701176,-0.12755083832769723,-0.2965350932606107,-0.06559200786355747,-0.07105935911405974,-0.0678223945880478,-0.1726636291241582,-0.06563452823728402,0.37000025248535556,0.14910277652764684,0.34363277467547054],[-0.4620857244746233,-0.73896749128295,-0.3637594738440698,0.11538366329168045,-0.46230072549353907,0.15440267238216818,-0.27305331545072,0.163857710752618,-0.2798056833887251,-0.25461580795345173,-0.01708944309363303,0.1757960751045115,0.11320640997843164,-0.013055056804657407,0.15121626204630048,0.47127682566592244,0.5852790292496584,-0.09226364538392388,0.8023000680955379,0.42482838335846534],[0.2175692889945485,0.07653577800805737,-0.07878605048599507,0.2766304692387472,-0.15342895392417902,0.41683417044996224,-0.17234602621528297,0.11734987751111688,0.06646438336697433,-0.29169610241760413,-0.7716740329651077,0.20864703513852143,-0.41792662291407573,0.008583219205380375,-0.04055141304309192,-0.2191869313658987,-0.003343046850437458,0.040525190261098826,-0.09695562906130006,-0.130659208108376],[-0.5741978598735697,-0.07579546693625434,0.029158271271362807,0.1901831482565033,-0.2563064131493043,0.25024011459788187,-0.376302083178838,-0.06738540100965887,0.2181365545387304,-0.7665549229591042,0.32362696013986025,0.27545003738916785,-0.5616829497797904,-0.0056519954989893905,-0.13875503390553043,-0.35600567805921873,-0.09357033977045691,0.01649311347985662,0.02431865097954219,0.4590828415481663],[-0.1962351505816955,0.5526039767576247,-0.8406394327835502,-0.42208074482801206,-0.09107904372594963,0.5193701161624263,0.9447754420660472,-0.13990973394612943,-0.6442729476271287,0.1678944387513369,-0.12488671143263605,0.4871707611315548,-0.37954929344095484,-0.12061426099447987,0.5744541050370505,-0.19469264766894126,-0.1624989272632444,-0.08051734279932536,-0.14882877289756832,-0.2773780506730856],[0.7772151130923352,0.19278027861526123,0.37993607736838086,-0.5542434340746231,0.218026716567998,-0.263892587099337,0.24020161145408123,0.30060155929834825,-0.5212950531214453,-0.11861547333618834,-0.1313842760618359,-0.1196087176029042,0.10616582929303332,0.6417259464705759,0.13281623918335272,0.10003215424728763,-0.06864883802393941,-0.2990321277458942,-0.7529320912240733,-0.2524128275118363],[-0.08223069858085645,-0.11560327006976863,0.01858399750032123,0.3360811666525839,0.18085907323534295,0.002092084928199815,-0.06691579421332287,-0.3741631553869507,0.3347318029521211,-0.05704768859857142,-0.2974834120329276,-0.06493631901058843,-0.03534136493968201,0.18425205079045553,0.12471435926761282,0.09079144090814746,-0.23084407726929126,0.18400471561326198,0.509092227056314,0.01724884301158373],[0.25058620403058535,-0.21470982984771322,-0.46883207824469264,-0.38327324198226587,0.2749177400702873,-0.44973757586664137,-0.4032281772383306,0.13539405428015122,0.20895681260589388,0.1930636370016411,0.4250341782150074,-0.735211223028084,0.046324915992684026,0.2899439300948913,-0.40604807970644075,0.17620086083214948,0.5366672807632228,-0.013766816892465393,-0.3542508674214808,0.3488153047452793],[-0.13633891864230058,-0.24260484367978954,0.18896615076606657,-0.1359737615579034,0.04098107351057938,-0.1370363170488468,0.13466966261448543,-0.35559766206709004,0.019127813107373662,0.03525638007392418,-0.3907764891706329,-0.10598038425576213,-0.14712923865846492,-0.6032940334498809,-0.12223822096761651,-0.39986050194899403,0.4286216235416946,0.33017676908761473,-0.1622232428757393,0.2108117295749411],[-0.2984930721847025,0.21759441585458147,0.28687277189962046,0.07380106257106747,-0.24353279083913146,0.15877156837231124,-0.5024519295901794,0.533358163976889,-0.16955576036289907,-0.10501052615771275,-0.16018625123276292,0.10295774104696387,-0.28330982633975155,-0.7348555959052461,0.037395403949300646,-0.2546598628773787,0.023263063438062934,-0.750439237039681,-0.022785111749426414,0.1295867697194152],[-0.9450302819051462,-0.2982580228180845,0.218779436530464,0.10943824219900447,-0.8302205290660967,-0.1308887772903785,0.0857131594788316,-0.5774099858706393,-0.41065152027633245,-0.447626931367053,0.3093197508359558,0.16615644339827118,0.15140846326402477,0.12957115091696075,-0.06923887289664005,0.05026395724340706,-0.07456106971137251,-0.6380830766207761,-0.036604668397836285,-0.045547139750000194],[-0.008908360386919861,0.7345223022512003,0.04927944487332224,-0.4204851434487868,0.3943325078833204,-0.13077730564323062,0.1919713361316756,-1.0885034405128167,-0.47927016218463747,0.20689481496802947,0.4065463723369301,-0.029085650027824338,0.331477762078602,-0.22174213434364454,-0.11261566490230039,-0.08421260796275037,0.25488360081387434,-0.11154427855037696,1.31968523537385,0.42597936120653823],[0.20711640218047445,0.2700603751629543,0.20781261267700085,0.03185651596581897,-0.45125216346388264,-0.06693351154768694,0.10579912481070118,0.46828475667874153,-0.17000129297456087,-0.22699876944702524,-0.45123804511935234,-0.06188639635558227,-0.3989058857878757,0.007263367694937182,0.39005048855765545,0.0323255617099515,-0.17923216071177028,-0.0516600404374039,-0.22744666380964915,0.3681505391001927],[-0.3936028638136495,0.07225819617809992,0.49018882672411285,-0.24767232935720976,0.15716083299742448,0.23996068859344255,0.2928061685149916,-0.28721730482541385,0.036267634130009836,0.4197616056124571,-0.12107520536870493,-0.062069296596009065,0.4682313715993814,-0.19255435327993506,-0.18652399692563112,0.34931338015279484,-0.013412005790452793,-0.12330607187676641,-0.19375610172737567,0.5242669970570011],[0.12337027116701114,0.28589842997993115,-0.19938023247913533,-0.009735383127846596,0.06194190827161905,0.14444654343133864,-0.053610901634461194,0.04892907110889641,-0.3063330065835588,-0.6380504335116594,-0.6787407432930614,-0.21402682126773726,0.07109124319216206,0.8355206271183037,0.04947600669500174,-0.13280757019019876,-0.7079135870506029,-0.3834815863669492,-0.03911481971148633,-0.25039218874854685],[-0.07138008983293671,0.19541402547420705,0.09517848219529085,0.4945805440102672,-0.24347261205512155,-0.48573368970036873,0.17847268457012222,-0.07305250839542388,0.3714262742091527,-0.19208022281407056,0.021119955513907288,0.15217840206210234,0.14281719737080018,0.1935275519226756,0.21669670559546755,-0.04556640985077426,-0.254932360453282,0.05590125167461876,-1.07499802773895,0.49139280742851926],[0.2165032426635742,-0.10947732385916176,0.6499518053559001,-0.13894414449406342,-0.25473971417603636,0.035400338106107654,-0.09156905177664287,0.15276799052943277,-0.25130225906299486,0.04480771570321074,0.5397877198259402,0.026059269304760737,-0.11061872478138715,0.11276377945389775,-0.2441046175233246,0.2960981318602394,-0.3411239832466247,-0.18554364295306022,-0.5242917058375052,0.11068216333139103],[0.15134261521640202,0.21856030797703113,0.603036922289462,-0.09232597181928766,0.04100011180549668,0.42280932517520053,-0.1814955875741343,0.29975911280490336,0.02013517264298063,-0.23980231532935706,-0.2258986824357242,-0.17293794511393926,0.29280565381055823,0.2103166505642598,-0.6103124178977197,-0.17173309054693883,-0.2961727478369295,-0.036452068079625984,0.6188905496642665,0.10118615823223008],[-0.30974777060386716,-0.32014093634634305,0.19694032560440128,0.2143860873769552,0.504877684263058,-0.17727037502965276,0.09644764930172399,-0.14478680288777834,0.19239420444962446,-0.3544471383584965,-0.08692043585502723,0.2298053117305654,0.02314958978513921,-0.4990641128875288,-0.00031514678531160186,0.10750671296181778,-0.5315256958829897,-0.10816922083023828,0.3974487732686361,-0.04291214858495751],[-0.06580380451873187,0.08709191662085944,-0.5030365254413488,-0.06215018495017161,-0.058862222041580814,-0.19264870301552023,-0.2570371874554106,-0.007690586363689077,-0.22410800389633423,0.020034139661772546,-0.6529076755729166,-0.21658840535445745,-0.23929743306398552,-0.013192208453171575,0.03133215590308269,-0.4015614342663047,-0.24792526099188655,-0.03497093565404337,-0.02653434252634896,0.04802892298783957],[-0.23027998915147777,0.22567919364281663,0.45147497548333965,-0.2439537257845861,0.0976355948136671,0.3201005298041072,0.16408746064852603,0.029782658870902496,0.29196055798800963,0.060858692278983516,-0.07291207161642385,0.0840800885769259,-0.0006656873826139872,0.004818359944902269,0.3549047429424294,0.05399828344470985,-0.13673901258444762,0.027443374125073527,-0.7107997657681159,0.020999092773205996],[-0.9221874565011362,0.0020136438346891666,-0.11479072710849858,-0.20245995480770457,-0.4925841916748502,-0.26936572384833934,-0.04121021275939618,-0.032563801540651194,-0.6324711229396605,-0.1028516729220526,0.2307218193872886,-0.9256982890206762,-0.0908174529351121,-0.16342333139817145,0.4036635855438937,-0.17927728314869754,0.12089413150782814,0.23994678393538502,0.10235110978351832,-0.18274079882016409],[0.004064527716694332,0.24154664249596264,-0.1085940055679637,-0.4580636294392799,-0.23683584777364478,-0.030294788145696645,0.7387214496184937,-0.2786773786999779,-0.09598667407206014,-0.5027956956111297,0.14947448612128933,0.08907120528802069,-0.48411890927271695,-0.3315838280254271,0.18381246499718054,-0.19936772912878323,0.49607396928724107,-0.45530751549515097,0.1625750838258813,0.11726209145457708],[0.39971280547001087,-0.6983953501247356,-0.19516618104385322,0.08954960877534061,0.13417533569555606,0.08463435392273969,-0.2905457130584713,0.08684433763938901,0.6156506980165627,-0.08075923878269332,-0.1034493455548894,-0.1621489367794973,-0.15719090959529836,-0.1314303653781656,0.2513541219977822,0.6029955000116036,0.17680824055540836,-0.3837428625457329,0.21608694615611715,0.0683957005938566],[-0.0589215906103953,0.15489315903746528,0.12496092312150643,0.3637019343649803,0.415297770959724,-0.3357886849314083,0.19425762824887077,-0.11807947922154477,-0.032300994397407815,0.4980030387902428,0.37378246732301995,-0.07130622378879796,-0.23539127482649877,0.10273333605724128,0.38499317477033934,0.05691507083073738,-0.3005545016342501,0.19932560451157044,-1.1528851552560015,0.08405856653607238],[0.029687015477814268,0.05305376195078865,0.0042134565534350625,0.6378028139026729,-0.03305775475682475,0.42524508197070104,-0.01717603786825385,-0.10575189395281231,0.165946455820715,0.44750950379926385,-0.03942124942442725,-0.3125360982999905,0.023295922197122253,-0.6682172146402677,0.0099543072770946,0.144416558397122,0.3195780061219871,-0.4298348909277282,0.4888114361153118,0.3588056701816786],[0.2564539609107961,0.26806194819344337,-0.2747380575320348,0.558737525943066,-0.1237977305463297,-0.2590727281667499,0.47551993648821417,-0.7532242399812283,-0.22379142650174044,0.33808861999500733,0.2650040401520941,-0.08297763714605001,0.13623632205344535,-0.2667172435572441,-0.47369564994725266,0.3632042629142269,-0.14657854543479895,-0.4447508544702632,0.3043792464787776,-0.24795586694464125],[-0.35569493423570314,-0.039094323585530014,0.31787272174621434,-0.23305089332089415,0.29647742440445507,-0.13135859015935947,-0.2511827715661113,-0.14032171661444917,0.07362770056312527,-0.4063162168190461,-0.39579469566111586,0.23399631546792152,0.47749566602016486,0.424270061217653,0.4464129712389002,0.2755437816335062,-0.16389973801263338,-0.4870009098169387,-0.05750567412113931,-0.20220609863434746],[0.0016513527192711713,0.07735537614042937,0.07823630259395423,0.07122827227518445,0.034321016526080626,-0.20087550231512702,0.01537345114671982,-0.2728932937781979,0.4727838295059888,0.2586938672870745,-0.24966662799404538,0.010263467803399347,-0.12995314434945468,0.05734001497341068,-0.42281545494962214,0.03517030511909283,-0.4575108852020747,-0.0737615754524034,0.4618012749198007,0.5165957145617629],[0.1503054953533789,0.13232530406570955,-0.41361016409701074,0.03673776110502939,-0.05161353167820783,0.47891945363598415,-0.01500007145830011,0.22783643281056498,-0.1025223679554066,-0.8372038546234165,-0.2058788749270285,0.20382788979046743,0.18383685811498143,-0.3284854791091409,0.12968406295319887,0.0963995721402749,-0.4610852915621181,0.23480720625642393,0.3864793764919425,0.11166610363136009],[-0.19053879394301904,-0.3865043779825066,-0.48761571088306505,-0.07024504442142242,-0.1862952899332575,0.28589359779682794,0.2763057493278638,-0.048101941836230996,-0.5137558604867358,-0.4755539903983829,-0.7237031930011553,0.12862116421634617,-0.2413551630537741,-0.045702594611955874,0.014729178753212818,0.09655548696943612,0.625165707453859,-0.23421117915790113,-0.2460313305045362,0.029232637901734485],[-0.4261189203604293,0.08429326014953749,-0.30500717091078666,-0.11686682954859512,0.14302354071076268,-0.53402049912981,0.4509473138049909,0.2746951097656238,0.01607208083883975,0.03383298797387699,-0.44707988100121177,0.18433999447157695,-0.20912575253535398,0.1097970329846948,0.050432212663339235,-0.40942404813773753,0.16415702030773444,-0.37378036427201217,0.008240397159507787,-0.009917579420620342],[-0.18219685977910596,0.2337475941122727,-0.7436102701858578,0.026532623731836836,-0.26932059722485413,-0.1776208436528027,0.26753256108873724,0.24474223776904924,-0.4354929721453907,0.030094110791400175,-0.29451892849329325,0.24841503222081102,0.272150197497416,-0.3371294333985987,0.09717443245653444,-0.6181799260703481,-0.39030418790881793,0.05443699380223702,-0.07037295668789881,0.14290251198901685],[0.21980968089889966,0.16924828410636972,-0.23150669479600805,-0.24446796167857598,0.216966215319874,0.10984119290253086,0.1656964409449297,0.8179150382637033,-0.25521103129033157,0.08924346898546805,-0.22897230297263219,0.12562234906583566,-0.34802446689960187,-0.24690210538916438,-0.4394039244263339,0.0408356631888388,-0.11915379052502177,-0.29183487144328835,-0.04421717312802861,-0.3379011998448446],[-0.29414762587648724,-0.3937224506588533,-0.05260072431159801,0.09058558366790685,-0.15287380778983295,-0.5254348016087115,-0.4920549755196986,-0.1552129559700737,0.23022971261770944,-0.15189130158174174,0.09550289213533762,-0.48624202178898196,-0.3827041103741381,0.07441114640386437,-0.762659536245117,0.26354075526497567,-0.16054801944728572,-0.2858324269436181,0.0017289512258347969,-0.23070317483777195],[-0.3230827121762513,-0.4646901558207108,-0.2725009304687525,0.2035991349967275,-0.06230350435976309,0.0020502588327226414,0.15935975122674603,0.27425595355112437,0.6149293069686113,-0.4993596549103779,-0.19640865472016913,0.184478822498237,-0.7732802579447153,0.062444752381334366,0.3129483809714711,0.28215669551268524,0.3365329842710194,-0.1554566723145554,-0.5068392440238412,0.4361964349926293],[-0.37716680364952443,0.5219155956466064,-0.09501771907240371,0.40332984153442947,-0.1811071721968507,0.06837202749102388,0.5670850031658827,-0.6272053585691825,-0.07360914045268324,0.4127384081665055,0.25710162542862786,-0.20906691559227358,0.010631140672176678,0.09046640236605999,-0.4478728136251156,-0.5591531252940214,-0.1778512672612124,0.04261435017125617,-0.2155460180949854,-0.16253764472651364],[-0.3262408761218068,0.05283761459327329,-0.4247231295608776,-0.056105468381898754,-0.2702640053127004,0.09753822596692537,-0.01937401706747816,0.3750962922230956,0.6805259790500601,-0.3562799288147358,0.17661261620149152,-0.17229149140990904,-0.47061996117399174,0.12412799760718465,-0.14760253712599253,-0.02468164231481443,0.2575230798079727,0.09684270378431159,0.23604432849136112,0.5456810016812762],[-0.3045950531125113,0.11675911369106091,0.016836441934734984,-0.11848417819226323,-0.05212522394718542,0.26580703785564114,0.030953690369723147,0.024263200290561972,0.06533970168375404,-0.24743734038126491,0.04090748047075978,-0.3429437315890845,0.18753987650990134,1.0088865729563554,-0.28004701578282803,-0.3161620361730605,0.11426342966480699,-0.2038791190772993,0.40995783736195807,0.172635192728932],[0.13383562305375146,-0.2507116090131025,-0.11819107164629587,-0.21858200016366688,0.16059776985919916,0.6151746411135601,0.2756781538854684,-0.14918265158530078,-0.3466625335202425,-0.5930520463278375,0.5771084865190927,0.1441080946414592,-0.1840375626860182,0.3212701965703311,0.08940715983119282,-0.5686211901561496,0.5108952380334646,-0.5238304329052869,0.2325209591188677,0.1614728256771191],[-0.3282809979243698,-0.1201439118988894,0.30549869045949135,0.5622045639790847,-0.3948227452846724,0.4909521075715925,0.140593190350676,0.5526892962388916,-0.5704157354063901,-0.15613982840780904,-0.058829601851650544,0.03953650919817192,-0.2651006811063106,-0.23319040587938789,0.14189092165135037,0.32155280124253904,0.196661478617052,0.2984948484081849,0.5978958573195086,-0.17763434171696807],[-0.6038177868877259,0.21932911001723765,0.5929088100956079,0.19907667106233937,-0.25809029998204014,-0.20355347583791406,0.06643999846043337,0.3486774909877736,-0.37503074222170457,-0.20337525712030083,0.05137379012627369,-0.03683111879753173,0.2925361498032932,-0.48553745182530705,-0.06001092140948465,0.6025846945521304,-0.3196226337785438,0.11732727737425419,0.39869003752154436,0.40430372928285346],[0.1281964357406408,0.01637137497177451,-0.6409607985848519,0.23130686852582655,0.7698042804871802,0.5954640301284184,-0.022330836274458768,-0.16976141096328004,-0.19516298910935306,0.27693869754783634,-0.06578981023255492,-0.459887958583781,-0.6098991638867767,-0.33390902502088304,-0.22833978584290768,0.3065471967699206,-0.08717020527779437,-0.3568160469182011,-0.07855682016574758,0.11541050403124996],[-0.06449206562297508,-0.21345246165842444,-0.277627938188718,-0.4414776569011399,-0.4929082113154525,-0.22065619943987183,0.3957930892562737,-0.7057067154954881,-0.3335963050311873,-0.49322435150323996,0.13524250352237577,-0.08158999095258117,-0.2117734834285647,-0.13952144147653225,0.23718330834136894,0.021870959290252123,0.17835499899036875,-0.22396703890128863,-0.28740047767403115,0.18683662324854475],[0.9356593037562695,0.18203100392016638,0.46502688267652514,0.21886185589852197,-0.010653917820799828,-0.8093933343444183,0.22648989170137082,-0.05172254513782864,-0.2264915014749114,0.20906464405087105,-0.677679208192994,0.2381209040730515,-0.7572736694796771,-0.3016408996578616,-0.10673104186381563,0.29687168033234423,0.10463641842294093,0.20531773933398975,-0.40824153448553924,0.22959079464412122],[0.017683948343837224,0.1549805329777003,-0.040590168390560136,-0.3184695121853588,-0.6346197097905437,0.008541566781274759,0.5331702056806249,-0.06462514103942964,-0.285922821218605,0.35303603959095387,-0.1596992876436312,-0.18332592666550912,0.26405979561838794,-0.021814758306140283,-0.006280174224697914,0.02174658397510191,0.1722770412103551,-0.0781969213829141,-0.7754013749439508,-0.03294530885388399],[0.519768419885613,-0.3516069620320498,0.0917069441468445,-0.15479998670642026,-0.3632064834863309,0.28553245375399405,-0.019862170984231146,-0.4703250425827578,-0.08517817114336979,0.41999258327932154,0.27602171297687067,0.26166629692169696,0.07270919021374081,-0.43604186380380344,0.46932302958584765,0.032809460819007895,0.40844702423459317,-0.18767537291247394,-0.36496785569430695,0.18396517485537978],[0.31426988949397233,-0.3964674050173933,-0.05301607890167698,0.1762444885931892,0.31087904214258144,-0.13586579439099514,0.041481940557506876,-0.012437099209071463,0.25421115774964265,-0.1454372517343886,-0.15201249725688637,-0.2527386800498447,0.17860199151078304,0.27010901425704126,-0.22579418031948195,-0.05232423312248086,0.43044728484387307,-0.4647665142496699,-0.30691732344063466,-0.007937324474225663],[0.10520775301629608,-0.10327327408752877,-0.15152205390657014,0.5666206181080726,0.5463876134060106,0.33322115328259466,-0.29678060173407533,-0.5362802866278955,0.1174392609983242,-0.5858769254210618,-0.1278738269767458,0.5589806142229647,0.35245695733427373,0.1731881385610624,-0.28071827755877954,-0.17948948611200888,0.004268239497528794,-0.2784588229553137,-0.06819697978076927,-0.3088695067861752],[0.1698964906857086,0.08388879602480277,0.32318508184498884,0.3444256607347577,0.8062503187666098,-0.43584503488146525,0.18421405325721735,0.2604711513482239,0.10018029400682,0.17970086183825995,-0.04513742388521114,0.036140118920648674,-0.1145745505437679,0.6226757263024784,0.5938081223723406,0.16118497499795464,-0.16865844691894458,-0.5172131259723303,-0.35859761825898806,0.49597335345330146],[-0.21423040246282754,0.4968865512391854,0.22851430580207407,0.2546635652880167,0.7223736097033471,-0.2918539907156268,-0.42450741903771727,-0.7267137227133037,-0.4026583862358778,-0.3403364066825852,0.4198477749892763,0.1764729949540694,0.09852976975925419,-0.2118611391635205,0.26957944071253,0.19845545934867945,0.5197411292005235,-0.0434663970703713,-0.37307390674049945,-0.053490257919853415],[0.48214200848253674,0.0776688502709582,0.1823892964451158,0.07630924362077218,-0.35010596612617817,0.08399971887100231,0.4555984903162861,0.3190942633024765,-0.08645888761760401,-0.3864611957766308,0.1633303690511942,0.026001720781639457,0.02026840525356409,0.06502424672822243,0.3802018600969757,-0.10344807368804904,-0.1034403679072126,-0.3154631119091954,-0.1890180375822776,-0.03677740026961471],[-1.1003953997572886,0.008677323214810248,-0.32640577919121605,0.1064367441246294,-0.5086123578867154,0.043652460411805385,-0.4405050775280807,0.29251638101429855,-0.20681646536130976,0.2896107736003929,0.26049602804759836,0.06520158725072828,-0.6790494117453786,-0.24722806125236682,-0.33842670469664754,0.010571413842244495,0.40876597882238985,0.17364189365116742,0.4363538164727981,-0.05163855889749081],[0.16552349510836728,0.881528566977768,-0.5275150301101336,0.6185656521733993,-0.13203442643282023,-0.43921237081967507,0.39675626201673225,0.04989065792123858,0.12112326644339044,-0.2140709866049957,0.27648165144895226,-0.6228386687631244,0.45168747232601375,-0.6307615486584911,0.013409558918593871,-0.023108593872663393,-0.31605438104051725,-0.34693241793731316,-0.35487117487712494,0.17853537867275937],[-0.1892224568610567,-0.5331933997272766,-0.3825614343299145,-0.7943887318371546,-0.014425374911929831,0.10017151907180995,-0.07628530686730119,-0.010482269131584895,-0.08958754031668408,0.22750707044883603,-0.6314356299396803,-0.26556662302815603,-0.05400566617700206,-0.19443163401888455,0.12156616936044604,0.39603384810645265,-0.15017065734243792,-0.24070268597777827,0.14075051928905688,0.12653506191155753],[-0.4962751891475298,0.014420724500765548,-0.2676328463587676,-0.10716712264390653,-0.14571040050826087,0.011551746095770551,0.03155142801823228,0.08588611924560532,-0.2778279973403576,0.5339357435932109,-0.5246316153485105,0.10985207337159775,-0.04074982479725415,0.02849920564546854,-0.11479533636386206,-0.07333837218524619,-0.36685511412123273,0.7262373393994646,-0.2589060030637322,-0.08351312757602666],[-0.31928832201120727,-0.17207992734406408,-0.3840882278200149,0.567724030412511,-0.1099762700433699,0.05403538627692754,0.2980260428299806,0.2916542431799754,0.6325772437092373,-0.26940521524692,-0.45052223209769865,0.06653478598512169,-0.21790698759136196,-0.5292279731182248,0.09824790642007468,-0.18461405592674276,-0.27371801620108854,0.09542493685837149,0.7564848289151809,0.12151930661403425],[1.2018521092179635,0.4336698647059313,0.010887574153413382,0.08896099632590779,-0.0633485786951461,0.1543448773073182,-0.26999943725227876,0.648453814798393,-0.542476422658314,-0.18544769838070396,0.035280334546111805,0.3501335267474873,-0.21197204997088417,-0.3412292319448195,0.15492958711564792,0.2607917861697841,0.0018700197768213188,-0.06986890641965658,-0.5007690980103999,0.49382241311808306],[-0.05423943259615847,-0.6104079069153644,-0.0765868754395917,0.13991793818133635,-0.05672832160743258,0.5464300707724167,0.3828423260655765,0.2811386278603797,0.4728807722528252,0.1481824049830176,0.4427204501455684,-0.47763377546640373,0.1258999062638702,-0.49678808468096597,0.043016844139275395,0.15328472463819576,0.5380918839161208,-0.4924682562933848,-0.9464486902574142,0.8050878126653436],[-0.010785625891803537,-0.04995196434292537,-0.08063001000075562,0.2766032469211502,0.14210822347343466,-0.13048442016807615,0.23752652468077748,0.06560635849729143,0.2796952764146249,-0.10479571637425385,0.651872716033201,0.03804423865600387,-0.2787804247155023,-0.12115280014110073,0.14512296144407066,0.2687368669239667,-0.1732633441703987,0.0878636784685703,-0.6556799233884922,-0.17384433955541656],[-0.4881443340260633,-0.07145983086938577,0.023153291304159322,-0.41581316024450793,0.7024894038089781,-0.16877831651417968,0.5045517999602342,0.24765437094228757,-0.3371484233127784,0.009912996205444474,-0.10470334359433478,-0.3887893722795519,-0.30359441888011357,-0.06347699279876785,-0.15194843006268613,-0.18552720448338328,-0.13342477615073425,0.0026620267126816217,0.11856734548938345,-0.4920093746245712],[-0.11433195665317748,-0.48263029197629265,-0.48428219216657487,0.02566247235731201,-0.38625512538151074,-0.38121001349888517,0.012826126872675684,-0.6192505704497858,0.011376168854394294,0.2191488205478887,0.052561726388219925,-0.1327415058598637,0.5239792220860571,0.3679554080993725,0.5435288777730518,-0.5307904909926466,0.34502550489576017,0.36680962894221614,0.8880222342027236,-0.344877788155217],[-0.13911670543994015,-0.2060006103257409,-0.3337494705931039,0.10906994874324792,-0.28722801568723605,0.13642154536749382,0.08553362791783423,0.3530929829930872,0.17470108911071108,-0.15728695992014682,0.19692095741959248,-0.3660767380242748,0.9387917497326257,0.16357302843288393,0.05523303597288979,-0.28463606648549755,0.2716798695350588,0.10387282974550754,0.472067495276765,-0.5269632357997824],[0.5920688866414597,0.42752172328460897,0.04419664487663519,0.15345829073364237,0.049609604198450646,0.30780607130263427,-0.46318637920770894,0.2159539810020973,0.36517506725759696,-0.6157318136627848,-0.44286140892690823,-0.12154676421676039,0.07692952526783194,-0.3372240634594535,0.43323943619968663,0.23608221737740448,-0.3581044357001823,0.3252320124721084,0.15669218940907925,-0.03185583497049611],[0.25321794651511226,-0.5144972737563932,0.29451911932440705,0.1357452028825804,-0.19711540105609426,-0.2123214244758048,-0.06644845037471614,-0.4872376323285023,-0.19127573776508722,0.39070980006025835,0.3792182017204447,-0.4811202978286779,0.20178610297087554,0.2749846611738745,0.5639884146771861,-0.28790711465980495,0.0007953547108189015,0.1386744447644728,-0.24022025907725125,-0.12256382645206555],[0.4894475004430387,0.3052149549644678,0.27675870577679446,0.4042792096917824,0.5070395247468332,-0.26550121069816435,0.10429240726581543,0.11730647486245036,-0.17169544450379579,0.22205795664143496,-0.05836185602494442,0.5722825355132519,0.3004415144464868,-0.19409607982002533,0.29706842384989307,-0.16446607134026472,-0.301714212726884,0.25346657658359545,-1.1611914241272714,0.31942414912254274],[0.6251626819829933,-0.606656968261083,-0.1410893088955841,-0.265696177914003,0.05380811803852598,0.22934500604895833,-0.45382887448940556,0.0009689683135084843,0.22657491416999062,-0.3467749552433197,0.5613610771304355,-0.12379145632590745,0.06767466562578872,-0.16935613877046568,0.1276576710492092,-0.011627201667747281,-0.31547429603253163,-0.09277704819604099,-0.2908948807437674,0.8179543467611426],[-0.0850149507084319,-0.32221999653769906,0.19967429008835583,0.288220295657312,0.19494364865176636,-0.22913108392700196,0.5997472104179777,-0.2722017468295154,0.09047066221360424,-0.2670643959625518,-0.3317243287812049,0.08620147173965634,0.25103583681368735,0.21299736671780325,-0.4781689424523078,-0.7298632635194908,0.24207861396442928,-0.47119682435956906,-0.06644710287028621,-0.4590401674038457],[-0.44574945649105957,0.20722306516232047,0.30958974373971404,-0.2758045683305414,-0.15343773354314938,-0.16875980664408471,-0.001464008967170794,0.39987336180195937,-0.16830467756657225,-0.5031061215114605,-0.33737261177858485,-0.3428377267899645,-0.112114850800908,-0.0017488244572262661,0.12114539002931562,0.2282317768478413,0.18124183461970966,-0.10386535918188314,0.23272984116067513,-0.28782284212237996],[-0.043935375131322923,-0.4304955218194273,-0.5968231473078492,0.43322671310989463,-0.22636696567277836,-0.19833394883057479,0.17325824885467775,0.11297499333201051,-0.2770248693629674,0.26029815079466645,0.4213029030715229,0.1321118902435072,0.5497236722501803,-0.3928139457141524,0.054016502657345825,-0.31139468486962574,0.22710144624180825,0.41533769191531367,0.6775039232204598,0.3758950852408658],[0.4894257770222341,-0.11874861557319284,0.035709598554348874,0.06781796259213266,0.5513982862186495,0.15428255494930534,0.25715616771372957,0.039240256215024825,-0.2919245421140323,-0.09884996798832096,-0.5512411790077524,-0.18953611919035748,-0.4741132800037957,-0.18246701266408222,0.1994555118474027,-0.010420086866677638,-0.17908910755868762,-0.18818934508476276,0.05211780784606195,-0.1327707075563811],[-0.1041589144075585,-0.014200433978380896,-0.19212668133849062,0.09109872795111239,-0.0922665514766224,0.0052787041328403944,-0.34520213610032346,0.897534361458203,0.22141842369040587,-0.08814742653303059,-0.29114706949470615,-0.7248101072758024,0.09758183737257375,0.286152708374827,-0.1720735331238818,0.058627925357745365,-0.3364522167754527,0.5634255250409836,-0.8221616665780861,0.2764973100546149],[-0.20836563215988715,-0.36303339418118036,-0.02055469017787605,-0.019469314163382576,0.2214369948971272,-0.8591670495330452,0.04632098274367613,0.008242454521900556,-0.1219475035263785,0.24475454227121324,0.08821543681900544,-0.12716250340087681,0.33137124418879876,0.1296499096003416,0.03944013131133932,-0.3403699341209423,0.0875401088883028,0.03444013338123724,-0.22444764150576849,-0.30393646577597655],[-0.002443294008056885,-0.6683802904485207,0.3060131796201335,-0.3827089404963549,-0.3765772438132579,-0.09671710658852664,0.127469803638319,0.05447929657831103,0.4292524796207517,0.04301120169010537,0.10139809694930224,-0.4926672794846994,0.07137897003648012,0.5748818608636868,-0.528693385385346,-0.12023981316467833,0.15029278195550994,-0.2892816909171047,-0.4658801668575427,0.19447418932655705],[-0.33484818709208286,-0.5004298963464342,0.12168656715232029,0.14414382897957206,-0.6076667064766258,0.04204832874359691,0.10675470064126194,0.3133095653637471,-0.2615399386396681,-0.1571916292721596,0.16186413882740805,-0.18770325236924845,-0.09269509083741682,-0.26598308084203537,-0.07150855594229531,0.7133461905564961,0.2576680938395331,-0.03271402296223295,-0.0971409149640992,-0.20771974804835128],[-0.22496766261633158,-0.38683347099202986,0.03449341622180243,0.052303241837764004,0.11725174160775655,-0.008338206796660173,-0.08650045453311633,0.2119745653834953,0.401662414870733,0.24690761873555173,0.3515710266257838,-0.6109138885708923,0.1253746108004389,-0.19398058751766828,-0.5375442348226201,0.12587100925624536,-0.44312672194932773,0.38376821686963514,0.5984229277678214,0.22350656707806846],[0.499820790137819,-0.06479768425992855,-0.2587806937215547,0.12225155747358595,-0.5702970421727285,-0.34640539811522053,-0.1897961033124917,-0.3538265692234987,-0.13833028015834167,-0.05676640383050601,0.0951583835297758,-0.33660262839814614,0.05213615043072995,-0.368604706740775,-0.1040055287882608,0.5104798055724448,-0.31872681315897644,0.2924055954211393,-0.21377331328072577,-0.05039003324256891],[0.08037479907438097,0.0880358453285891,-0.271671279244104,0.0810433633846441,0.40730096066694826,0.28050924504452346,0.31326948494986334,0.054738587383593135,0.14749349942086026,-0.22002389331810887,0.1242831687575646,0.3477557162287364,-0.29958232941241864,-0.07541764746641307,-0.4257781084981987,0.25135756609761356,-0.10579591765035025,-0.12814152490140737,-0.22031586685385035,-0.1079404046704519],[-0.27478129049659084,-0.05408279767748572,-0.017045545386419808,-0.01204044561459388,0.5089351564297104,-0.3535657213047107,0.4959836318762394,0.3698567096122708,0.512106512811814,0.12205223098358776,0.16393128639432167,0.3219227606523484,-0.3931358651586191,0.4244498823342416,